{"learner":{"attributes":{},"feature_names":["log_amount","hour","dayofweek","cust_tx_count_7d","cust_tx_mean_7d","term_fraud_count_28d","amount_ratio_to_cust_mean","cust_amount_dev","term_fraud_rate_28d"],"feature_types":["float","int","int","float","float","float","float","float","float"],"gradient_booster":{"model":{"cats":{"enc":[],"feature_segments":[],"sorted_idx":[]},"gbtree_model_param":{"num_parallel_tree":"1","num_trees":"300"},"iteration_indptr":[0,1,2,3,4,5,6,7,8,9,10,11,12,13,14,15,16,17,18,19,20,21,22,23,24,25,26,27,28,29,30,31,32,33,34,35,36,37,38,39,40,41,42,43,44,45,46,47,48,49,50,51,52,53,54,55,56,57,58,59,60,61,62,63,64,65,66,67,68,69,70,71,72,73,74,75,76,77,78,79,80,81,82,83,84,85,86,87,88,89,90,91,92,93,94,95,96,97,98,99,100,101,102,103,104,105,106,107,108,109,110,111,112,113,114,115,116,117,118,119,120,121,122,123,124,125,126,127,128,129,130,131,132,133,134,135,136,137,138,139,140,141,142,143,144,145,146,147,148,149,150,151,152,153,154,155,156,157,158,159,160,161,162,163,164,165,166,167,168,169,170,171,172,173,174,175,176,177,178,179,180,181,182,183,184,185,186,187,188,189,190,191,192,193,194,195,196,197,198,199,200,201,202,203,204,205,206,207,208,209,210,211,212,213,214,215,216,217,218,219,220,221,222,223,224,225,226,227,228,229,230,231,232,233,234,235,236,237,238,239,240,241,242,243,244,245,246,247,248,249,250,251,252,253,254,255,256,257,258,259,260,261,262,263,264,265,266,267,268,269,270,271,272,273,274,275,276,277,278,279,280,281,282,283,284,285,286,287,288,289,290,291,292,293,294,295,296,297,298,299,300],"tree_info":[0,0,0,0,0,0,0,0,0,0,0,0,0,0,0,0,0,0,0,0,0,0,0,0,0,0,0,0,0,0,0,0,0,0,0,0,0,0,0,0,0,0,0,0,0,0,0,0,0,0,0,0,0,0,0,0,0,0,0,0,0,0,0,0,0,0,0,0,0,0,0,0,0,0,0,0,0,0,0,0,0,0,0,0,0,0,0,0,0,0,0,0,0,0,0,0,0,0,0,0,0,0,0,0,0,0,0,0,0,0,0,0,0,0,0,0,0,0,0,0,0,0,0,0,0,0,0,0,0,0,0,0,0,0,0,0,0,0,0,0,0,0,0,0,0,0,0,0,0,0,0,0,0,0,0,0,0,0,0,0,0,0,0,0,0,0,0,0,0,0,0,0,0,0,0,0,0,0,0,0,0,0,0,0,0,0,0,0,0,0,0,0,0,0,0,0,0,0,0,0,0,0,0,0,0,0,0,0,0,0,0,0,0,0,0,0,0,0,0,0,0,0,0,0,0,0,0,0,0,0,0,0,0,0,0,0,0,0,0,0,0,0,0,0,0,0,0,0,0,0,0,0,0,0,0,0,0,0,0,0,0,0,0,0,0,0,0,0,0,0,0,0,0,0,0,0,0,0,0,0,0,0,0,0,0,0,0,0,0,0,0,0,0,0,0,0,0,0,0,0],"trees":[{"base_weights":[-2.1521416E-3,-1.9999932E-1,1.7111363E0,1.3653902E0,1.9371772E0,3.6489582E-1,1.888647E0,1.6744428E0,1.9714661E0,-1.3064726E-1,1.8950433E0,1.4179375E0,1.9589906E0,1.4575225E0,1.9688195E0,1.9123229E0,1.974635E-1,-3.382587E-1,2.580419E-1,1.3240157E0,1.9220804E0,8.22959E-1,1.9533732E0,1.8028848E0,1.9820681E0,1.3594266E0,1.9276452E0,1.8863944E0,1.9915396E-1,-1.20000005E-1,1.9129614E0,1.08661525E-1,-3.6090806E-2,1.6037008E-2,8.78294E-2,-4.6013143E-2,1.6513388E-1,1.7368872E-1,1.9548735E-1,-4.4265933E-2,8.801966E-2,1.4949574E-1,1.9902442E-1,1.4270234E-1,1.9941509E-1,-1.4666668E-1,1.9822334E-1,-1.9344263E-1,1.3682917E-1,-1.20000005E-1,1.9301692E-1,1.6780655E-1,1.9818257E-1,-1E-1,1.9133872E-1],"categories":[],"categories_nodes":[],"categories_segments":[],"categories_sizes":[],"default_left":[0,0,0,0,0,0,0,0,0,0,0,0,0,0,0,0,0,0,0,0,0,0,0,0,0,0,0,0,0,0,0,0,0,0,0,0,0,0,0,0,0,0,0,0,0,0,0,0,0,0,0,0,0,0,0],"id":0,"left_children":[1,-1,3,5,7,9,11,13,15,17,19,21,23,25,27,29,-1,31,33,35,37,39,41,43,45,47,49,51,-1,-1,53,-1,-1,-1,-1,-1,-1,-1,-1,-1,-1,-1,-1,-1,-1,-1,-1,-1,-1,-1,-1,-1,-1,-1,-1],"loss_changes":[2.1414472E6,0E0,2.631925E4,6.970433E4,1.831375E3,3.4670883E4,2.8919688E3,1.4988125E3,2.99375E1,2.787317E3,1.7014844E2,3.620537E3,2.704375E2,6.2196484E2,1.4921875E1,2.05625E1,0E0,7.269944E2,7.284152E2,2.9794647E2,6.1445312E1,3.90646E2,9.816211E1,7.021367E2,4.065625E1,3.299375E2,2.0753906E1,3.9899902E1,0E0,0E0,1.3316406E1,0E0,0E0,0E0,0E0,0E0,0E0,0E0,0E0,0E0,0E0,0E0,0E0,0E0,0E0,0E0,0E0,0E0,0E0,0E0,0E0,0E0,0E0,0E0,0E0],"parents":[2147483647,0,0,2,2,3,3,4,4,5,5,6,6,7,7,8,8,9,9,10,10,11,11,12,12,13,13,14,14,15,15,17,17,18,18,19,19,20,20,21,21,22,22,23,23,24,24,25,25,26,26,27,27,30,30],"right_children":[2,-1,4,6,8,10,12,14,16,18,20,22,24,26,28,30,-1,32,34,36,38,40,42,44,46,48,50,52,-1,-1,54,-1,-1,-1,-1,-1,-1,-1,-1,-1,-1,-1,-1,-1,-1,-1,-1,-1,-1,-1,-1,-1,-1,-1,-1],"split_conditions":[1E0,-1.9999932E-1,2E0,1.5450524E0,3E0,1.1673E2,1.8276069E0,1.7842643E0,4E0,1.1411268E0,1.2183546E2,1.00935555E2,2.030558E0,1.1369937E2,2.092047E0,3E0,1.974635E-1,3.258468E-2,9.381966E1,9.668308E-1,5.826168E-1,1.275E1,1.1369937E2,1.056025E2,5.1484E0,4E0,3E0,8.885611E1,1.9915396E-1,-1.20000005E-1,3.258468E-2,1.08661525E-1,-3.6090806E-2,1.6037008E-2,8.78294E-2,-4.6013143E-2,1.6513388E-1,1.7368872E-1,1.9548735E-1,-4.4265933E-2,8.801966E-2,1.4949574E-1,1.9902442E-1,1.4270234E-1,1.9941509E-1,-1.4666668E-1,1.9822334E-1,-1.9344263E-1,1.3682917E-1,-1.20000005E-1,1.9301692E-1,1.6780655E-1,1.9818257E-1,-1E-1,1.9133872E-1],"split_indices":[5,0,5,6,5,4,6,6,5,6,4,4,6,4,6,3,0,6,4,6,6,4,4,4,4,3,3,4,0,0,6,0,0,0,0,0,0,0,0,0,0,0,0,0,0,0,0,0,0,0,0,0,0,0,0],"split_type":[0,0,0,0,0,0,0,0,0,0,0,0,0,0,0,0,0,0,0,0,0,0,0,0,0,0,0,0,0,0,0,0,0,0,0,0,0,0,0,0,0,0,0,0,0,0,0,0,0,0,0,0,0,0,0],"sum_hessian":[6.256258E5,2.8882775E5,3.3679803E5,1.3314697E5,2.0365106E5,4.5723305E4,8.7423664E4,2.3515607E4,1.8013545E5,3.453874E4,1.1184564E4,1.1368914E4,7.605475E4,1.354242E4,9.9731875E3,9.191821E3,1.7094364E5,2.2513617E4,1.2025121E4,5.0788757E2,1.0676678E4,5.386238E3,5.982676E3,9.805447E3,6.62493E4,1.1207708E4,2.334711E3,2.1731877E3,7.7999995E3,1.5E0,9.190321E3,3.5153485E2,2.2162082E4,1.0390221E4,1.634901E3,7.867054E1,4.29217E2,1.614277E3,9.0624E3,2.3276163E2,5.1534766E3,4.48467E2,5.534209E3,3.3097808E3,6.495666E3,2.75E0,6.624655E4,2.95E1,1.1178208E4,1.5E0,2.333211E3,6.8858136E2,1.4846064E3,1E0,9.189321E3],"tree_param":{"num_deleted":"0","num_feature":"9","num_nodes":"55","size_leaf_vector":"1"}},{"base_weights":[-2.9350792E-3,-1.818725E-1,1.5539873E0,1.2782385E0,1.7925756E0,4.9033332E-1,1.7213317E0,1.7389035E0,1.7954342E-1,3.1628963E-1,1.6386693E0,1.3785032E0,1.801049E0,-1.1305224E-1,1.7395008E0,5.5762094E-2,1.2452365E0,1.0400077E0,1.6974348E0,1.7438883E0,1.1461289E0,1.7007271E0,1.8174824E-1,1.7310805E0,1.8200998E-1,-2.7283669E-2,6.8217084E-2,9.980247E-2,1.2984698E-1,-1.9055475E-1,1.1689665E-1,1.5986697E-1,1.7918445E-1,1.8000883E-1,1.612692E-1,8.838724E-2,1.753102E-1,1.7875026E-1,1.4505135E-1,1.4821054E-1,1.7328797E-1],"categories":[],"categories_nodes":[],"categories_segments":[],"categories_sizes":[],"default_left":[0,0,0,0,0,0,0,0,0,0,0,0,0,0,0,0,0,0,0,0,0,0,0,0,0,0,0,0,0,0,0,0,0,0,0,0,0,0,0,0,0],"id":1,"left_children":[1,-1,3,5,7,9,11,13,-1,15,17,19,21,-1,23,25,27,29,31,33,35,37,-1,39,-1,-1,-1,-1,-1,-1,-1,-1,-1,-1,-1,-1,-1,-1,-1,-1,-1],"loss_changes":[1.7516121E6,0E0,2.1943625E4,5.4021312E4,2.43125E1,1.1131618E4,2.7042812E3,1.7519531E1,0E0,1.1706234E4,2.5613086E2,1.5848516E3,1.2939062E2,0E0,3.0039062E0,7.776017E3,1.3812305E2,2.5211267E2,5.9365234E1,5.065039E1,1.8174238E3,2.433086E2,0E0,1.1230469E0,0E0,0E0,0E0,0E0,0E0,0E0,0E0,0E0,0E0,0E0,0E0,0E0,0E0,0E0,0E0,0E0,0E0],"parents":[2147483647,0,0,2,2,3,3,4,4,5,5,6,6,7,7,9,9,10,10,11,11,12,12,14,14,15,15,16,16,17,17,18,18,19,19,20,20,21,21,23,23],"right_children":[2,-1,4,6,8,10,12,14,-1,16,18,20,22,-1,24,26,28,30,32,34,36,38,-1,40,-1,-1,-1,-1,-1,-1,-1,-1,-1,-1,-1,-1,-1,-1,-1,-1,-1],"split_conditions":[1E0,-1.818725E-1,3E0,2.8598183E1,4E0,1.1369937E2,6.5175E1,3E0,1.7954342E-1,2E0,1.2183546E2,4.1468334E1,5.277298E0,-1.1305224E-1,8.3003334E1,7.8440742E0,2.9683611E0,4.046379E0,4.9322414E0,3.1046818E1,1.1149913E2,7.229E1,1.8174824E-1,-6.1607857E1,1.8200998E-1,-2.7283669E-2,6.8217084E-2,9.980247E-2,1.2984698E-1,-1.9055475E-1,1.1689665E-1,1.5986697E-1,1.7918445E-1,1.8000883E-1,1.612692E-1,8.838724E-2,1.753102E-1,1.7875026E-1,1.4505135E-1,1.4821054E-1,1.7328797E-1],"split_indices":[5,0,5,7,5,4,7,3,0,5,4,4,0,0,7,7,0,0,0,4,4,4,0,7,0,0,0,0,0,0,0,0,0,0,0,0,0,0,0,0,0],"split_type":[0,0,0,0,0,0,0,0,0,0,0,0,0,0,0,0,0,0,0,0,0,0,0,0,0,0,0,0,0,0,0,0,0,0,0,0,0,0,0,0,0],"sum_hessian":[6.1958944E5,2.860168E5,3.3357262E5,1.5473911E5,1.7883353E5,5.5698504E4,9.90406E4,9.074358E3,1.6975917E5,4.8368906E4,7.3295967E3,1.868841E4,8.035219E4,1.4946129E0,9.072863E3,3.7775617E4,1.0593289E4,6.568431E2,6.6727534E3,7.262446E3,1.1425965E4,1.1324316E4,6.9027875E4,8.23503E3,8.378334E2,2.4778162E4,1.2997456E4,1.880433E3,8.712856E3,2.6973087E1,6.2987E2,3.2699207E3,3.4028328E3,5.0755366E3,2.1869092E3,7.980336E3,3.445629E3,8.403719E3,2.920598E3,6.4997696E1,8.170032E3],"tree_param":{"num_deleted":"0","num_feature":"9","num_nodes":"41","size_leaf_vector":"1"}},{"base_weights":[5.0449587E-4,-1.6825765E-1,1.4318599E0,1.1754825E0,1.6569029E0,5.0596774E-1,1.6151363E0,1.601977E0,1.6597417E-1,1.7296496E-1,1.5820631E0,1.3274891E0,1.6621289E0,-1.1348064E-1,1.6026585E0,-9.728905E-2,1.1141821E0,1.0880332E0,1.6219254E0,8.917705E-1,1.6446999E0,1.5997219E0,1.6788168E0,1.5947006E0,1.6793588E-1,-2.8528351E-2,2.2040548E-2,-1.8618526E-1,1.1220717E-1,-1.7554109E-1,1.1649028E-1,1.4764176E-1,1.6703509E-1,-2.3992924E-2,9.3541406E-2,1.3070433E-1,1.6788647E-1,1.4121096E-1,1.6801883E-1,-1.6272058E-1,1.6790122E-1,1.5222721E-1,1.6019636E-1],"categories":[],"categories_nodes":[],"categories_segments":[],"categories_sizes":[],"default_left":[0,0,0,0,0,0,0,0,0,0,0,0,0,0,0,0,0,0,0,0,0,0,0,0,0,0,0,0,0,0,0,0,0,0,0,0,0,0,0,0,0,0,0],"id":2,"left_children":[1,-1,3,5,7,9,11,13,-1,15,17,19,21,-1,23,25,27,29,31,33,35,37,39,41,-1,-1,-1,-1,-1,-1,-1,-1,-1,-1,-1,-1,-1,-1,-1,-1,-1,-1,-1],"loss_changes":[1.4601339E6,0E0,1.8895812E4,4.5069188E4,2.453125E1,2.174871E4,1.2470938E3,1.7857422E1,0E0,1.1790343E4,2.8069922E2,1.7930586E3,8.00625E1,0E0,2.5722656E0,2.1508777E3,2.4486621E2,2.3678198E2,9.103906E1,2.705044E2,8.44707E1,2.5097656E2,4.321875E1,1.6699219E0,0E0,0E0,0E0,0E0,0E0,0E0,0E0,0E0,0E0,0E0,0E0,0E0,0E0,0E0,0E0,0E0,0E0,0E0,0E0],"parents":[2147483647,0,0,2,2,3,3,4,4,5,5,6,6,7,7,9,9,10,10,11,11,12,12,14,14,15,15,16,16,17,17,18,18,19,19,20,20,21,21,22,22,23,23],"right_children":[2,-1,4,6,8,10,12,14,-1,16,18,20,22,-1,24,26,28,30,32,34,36,38,40,42,-1,-1,-1,-1,-1,-1,-1,-1,-1,-1,-1,-1,-1,-1,-1,-1,-1,-1,-1],"split_conditions":[1E0,-1.6825765E-1,3E0,1.630481E0,4E0,1.1369937E2,1.9083427E0,3E0,1.6597417E-1,2E0,1.2183546E2,9.676222E1,2.1803997E0,-1.1348064E-1,5.18257E0,1.1507618E0,4E0,4.906251E-1,4.9322414E0,3.1501687E0,1.1369937E2,1.00935555E2,2.8142104E0,1.1E1,1.6793588E-1,-2.8528351E-2,2.2040548E-2,-1.8618526E-1,1.1220717E-1,-1.7554109E-1,1.1649028E-1,1.4764176E-1,1.6703509E-1,-2.3992924E-2,9.3541406E-2,1.3070433E-1,1.6788647E-1,1.4121096E-1,1.6801883E-1,-1.6272058E-1,1.6790122E-1,1.5222721E-1,1.6019636E-1],"split_indices":[5,0,5,6,5,4,6,3,0,5,4,4,6,0,0,6,3,6,0,0,4,4,0,3,0,0,0,0,0,0,0,0,0,0,0,0,0,0,0,0,0,0,0],"split_type":[0,0,0,0,0,0,0,0,0,0,0,0,0,0,0,0,0,0,0,0,0,0,0,0,0,0,0,0,0,0,0,0,0,0,0,0,0,0,0,0,0,0,0],"sum_hessian":[6.0609225E5,2.785522E5,3.2754003E5,1.5311364E5,1.744264E5,6.0692254E4,9.242138E4,8.599535E3,1.6582688E5,4.6350145E4,1.434211E4,1.2982619E4,7.9438766E4,1.7264515E0,8.59781E3,3.6011086E4,1.0339056E4,1.0729458E3,1.3269165E4,5.471211E3,7.5114077E3,1.678087E4,6.2657895E4,7.809356E3,7.8845337E2,2.2623703E4,1.3387384E4,2.671517E1,1.0312341E4,2.766772E1,1.0452781E3,3.3211921E3,9.947973E3,2.0299335E2,5.268218E3,6.937908E2,6.817617E3,5.042505E3,1.1738364E4,3.2107115E0,6.2654684E4,7.309318E2,7.078424E3],"tree_param":{"num_deleted":"0","num_feature":"9","num_nodes":"43","size_leaf_vector":"1"}},{"base_weights":[-1.567777E-5,-1.5768693E-1,1.3326725E0,1.0499195E0,1.5216088E0,2.892229E-1,1.5056098E0,1.3077157E0,1.5508214E0,-9.0820335E-2,1.4491327E0,1.2218759E0,1.5537353E0,1.1359061E0,1.5537559E0,1.4989794E0,1.553617E-1,-2.6896885E-1,2.0846027E-1,9.5618457E-1,1.5090573E0,7.613871E-1,1.5644453E0,7.031992E-1,1.5561349E0,1.0472344E0,1.5048978E0,-1.5812789E-1,1.5546623E0,-1.12670206E-1,1.4997044E0,1.496158E-2,-3.268222E-2,-1.993096E-1,2.416809E-2,-1.6956785E-1,1.03760615E-1,1.3469869E-1,1.5609753E-1,1.08539045E-1,6.526583E-2,1.2091475E-1,1.5730035E-1,9.4858676E-2,-2.1976998E-1,1.5044807E-1,1.5756102E-1,-2.2796331E-1,1.0525675E-1,-1.4281885E-1,1.5076777E-1,1.3730602E-1,1.5612914E-1,1.4920892E-1,1.5731144E-1],"categories":[],"categories_nodes":[],"categories_segments":[],"categories_sizes":[],"default_left":[0,0,0,0,0,0,0,0,0,0,0,0,0,0,0,0,0,0,0,0,0,0,0,0,0,0,0,0,0,0,0,0,0,0,0,0,0,0,0,0,0,0,0,0,0,0,0,0,0,0,0,0,0,0,0],"id":3,"left_children":[1,-1,3,5,7,9,11,13,15,17,19,21,23,25,27,29,-1,31,33,35,37,39,41,43,45,47,49,-1,51,-1,53,-1,-1,-1,-1,-1,-1,-1,-1,-1,-1,-1,-1,-1,-1,-1,-1,-1,-1,-1,-1,-1,-1,-1,-1],"loss_changes":[1.2298479E6,0E0,1.6942562E4,4.403983E4,1.186E3,2.098158E4,1.0830156E3,9.6427344E2,2.19375E1,1.9115243E3,3.4554297E2,1.8171367E3,1.3754688E2,4.3882422E2,2.9154297E1,1.803711E1,0E0,5.4429663E2,9.789248E2,2.7724976E2,8.600781E1,1.7258105E2,1.8192383E1,1.3942531E2,6.578125E1,1.9500098E2,2.339795E1,0E0,9.1640625E0,0E0,2.4511719E0,0E0,0E0,0E0,0E0,0E0,0E0,0E0,0E0,0E0,0E0,0E0,0E0,0E0,0E0,0E0,0E0,0E0,0E0,0E0,0E0,0E0,0E0,0E0,0E0],"parents":[2147483647,0,0,2,2,3,3,4,4,5,5,6,6,7,7,8,8,9,9,10,10,11,11,12,12,13,13,14,14,15,15,17,17,18,18,19,19,20,20,21,21,22,22,23,23,24,24,25,25,26,26,28,28,30,30],"right_children":[2,-1,4,6,8,10,12,14,16,18,20,22,24,26,28,30,-1,32,34,36,38,40,42,44,46,48,50,-1,52,-1,54,-1,-1,-1,-1,-1,-1,-1,-1,-1,-1,-1,-1,-1,-1,-1,-1,-1,-1,-1,-1,-1,-1,-1,-1],"split_conditions":[1E0,-1.5768693E-1,2E0,1.630481E0,3E0,1.1149913E2,1.9083427E0,1.764594E0,4E0,1.1507618E0,1.2183546E2,1.068144E2,3.1917102E0,1.081612E2,2.737609E0,3E0,1.553617E-1,3.0769995E-1,7.9E0,4.906251E-1,4.913243E0,1.2E1,1.1369937E2,5E0,5.277298E0,1E0,3E0,-1.5812789E-1,1.8276069E0,-1.12670206E-1,5.18257E0,1.496158E-2,-3.268222E-2,-1.993096E-1,2.416809E-2,-1.6956785E-1,1.03760615E-1,1.3469869E-1,1.5609753E-1,1.08539045E-1,6.526583E-2,1.2091475E-1,1.5730035E-1,9.4858676E-2,-2.1976998E-1,1.5044807E-1,1.5756102E-1,-2.2796331E-1,1.0525675E-1,-1.4281885E-1,1.5076777E-1,1.3730602E-1,1.5612914E-1,1.4920892E-1,1.5731144E-1],"split_indices":[5,0,5,6,5,4,6,6,5,6,4,4,0,4,0,3,0,6,4,6,0,3,4,2,0,1,3,0,6,0,0,0,0,0,0,0,0,0,0,0,0,0,0,0,0,0,0,0,0,0,0,0,0,0,0],"split_type":[0,0,0,0,0,0,0,0,0,0,0,0,0,0,0,0,0,0,0,0,0,0,0,0,0,0,0,0,0,0,0,0,0,0,0,0,0,0,0,0,0,0,0,0,0,0,0,0,0,0,0,0,0,0,0],"sum_hessian":[5.852346E5,2.6806112E5,3.171735E5,1.2704729E5,1.9012623E5,4.7595844E4,7.9451445E4,2.2851846E4,1.6727438E5,3.5850414E4,1.174543E4,1.152568E4,6.7925766E4,1.3459036E4,9.39281E3,8.585953E3,1.5868842E5,2.2473209E4,1.3377207E4,1.2748972E3,1.0470532E4,4.918011E3,6.607668E3,1.9193628E2,6.773383E4,1.0854459E4,2.6045774E3,2.2113233E0,9.390599E3,1.9411391E0,8.584012E3,2.7287058E3,1.9744504E4,1.979792E2,1.3179228E4,3.7387203E1,1.23751E3,2.546906E3,7.9236265E3,1.2334492E3,3.684562E3,1.5876588E2,6.4489023E3,1.7758716E2,1.4349125E1,1.8566879E4,4.9166945E4,1.6689669E1,1.083777E4,1.9806538E0,2.6025967E3,3.380412E2,9.052557E3,7.79656E3,7.874518E2],"tree_param":{"num_deleted":"0","num_feature":"9","num_nodes":"55","size_leaf_vector":"1"}},{"base_weights":[-2.2724955E-4,-1.492713E-1,1.2509059E0,1.0133141E0,1.4662341E0,3.503003E-1,1.3945072E0,1.4129685E0,1.4690894E-1,2.0426926E-1,1.3206208E0,1.0919529E0,1.4750057E0,1.4040434E0,1.4898263E-1,-5.3509222E-3,9.6366006E-1,7.964531E-1,1.375496E0,8.8180333E-1,1.4574494E0,1.3431146E0,1.487352E0,1.1370393E0,1.4060706E-1,-1.9472595E-2,8.865069E-2,9.689507E-2,-2.4716376E-1,-1.5377823E-1,8.9213006E-2,1.2933156E-1,1.4631224E-1,6.871229E-2,1.4220023E-1,1.346208E-1,1.4873888E-1,1.4778776E-1,1.2328132E-1,1.4291112E-1,1.491014E-1,-2.11585E-1,1.3416262E-1],"categories":[],"categories_nodes":[],"categories_segments":[],"categories_sizes":[],"default_left":[0,0,0,0,0,0,0,0,0,0,0,0,0,0,0,0,0,0,0,0,0,0,0,0,0,0,0,0,0,0,0,0,0,0,0,0,0,0,0,0,0,0,0],"id":4,"left_children":[1,-1,3,5,7,9,11,13,-1,15,17,19,21,23,-1,25,27,29,31,33,35,37,39,41,-1,-1,-1,-1,-1,-1,-1,-1,-1,-1,-1,-1,-1,-1,-1,-1,-1,-1,-1],"loss_changes":[1.0466579E6,0E0,1.55979375E4,3.663772E4,2.221875E1,7.49861E3,2.2401719E3,3.506836E0,0E0,7.3225117E3,1.9802539E2,1.484752E3,1.16390625E2,2.3701172E0,0E0,6.088925E3,1.8325195E2,1.4841895E2,4.3223633E1,1.291165E3,2.1516602E1,9.083008E1,1.203125E1,4.308316E1,0E0,0E0,0E0,0E0,0E0,0E0,0E0,0E0,0E0,0E0,0E0,0E0,0E0,0E0,0E0,0E0,0E0,0E0,0E0],"parents":[2147483647,0,0,2,2,3,3,4,4,5,5,6,6,7,7,9,9,10,10,11,11,12,12,13,13,15,15,16,16,17,17,18,18,19,19,20,20,21,21,22,22,23,23],"right_children":[2,-1,4,6,8,10,12,14,-1,16,18,20,22,24,-1,26,28,30,32,34,36,38,40,42,-1,-1,-1,-1,-1,-1,-1,-1,-1,-1,-1,-1,-1,-1,-1,-1,-1,-1,-1],"split_conditions":[5E-1,-1.492713E-1,7.5E-1,2.6569092E1,8E-1,1.1369937E2,6.5175E1,8.3003334E1,1.4690894E-1,6.666667E-1,1.2183546E2,2.092047E0,8.3003334E1,-6.1607857E1,1.4898263E-1,1.4435688E0,2.5322857E1,4.906251E-1,4.9322414E0,1.0970118E2,2.335215E0,5.8749092E1,9.7461E1,3.4663608E0,1.4060706E-1,-1.9472595E-2,8.865069E-2,9.689507E-2,-2.4716376E-1,-1.5377823E-1,8.9213006E-2,1.2933156E-1,1.4631224E-1,6.871229E-2,1.4220023E-1,1.346208E-1,1.4873888E-1,1.4778776E-1,1.2328132E-1,1.4291112E-1,1.491014E-1,-2.11585E-1,1.3416262E-1],"split_indices":[8,0,8,7,8,4,7,7,0,8,4,6,7,7,0,6,7,6,0,4,6,4,7,0,0,0,0,0,0,0,0,0,0,0,0,0,0,0,0,0,0,0,0],"split_type":[0,0,0,0,0,0,0,0,0,0,0,0,0,0,0,0,0,0,0,0,0,0,0,0,0,0,0,0,0,0,0,0,0,0,0,0,0,0,0,0,0,0,0],"sum_hessian":[5.605179E5,2.5560483E5,3.0491303E5,1.4496516E5,1.5994789E5,5.2920965E4,9.2044195E4,8.162954E3,1.5178494E5,4.599937E4,6.9215923E3,1.9346162E4,7.269803E4,7.3309214E3,8.320328E2,3.604939E4,9.949982E3,6.574222E2,6.26417E3,1.2285675E4,7.060487E3,6.2320977E3,6.646593E4,5.9472675E1,7.2714487E3,2.973608E4,6.313309E3,9.935399E3,1.4583267E1,2.5292282E1,6.321299E2,3.2406653E3,3.023505E3,9.0326875E3,3.252988E3,1.5070208E3,5.553466E3,2.7994324E3,3.4326655E3,3.9551174E3,6.2510816E4,2.9663448E0,5.650633E1],"tree_param":{"num_deleted":"0","num_feature":"9","num_nodes":"43","size_leaf_vector":"1"}},{"base_weights":[1.1509719E-3,-1.4243904E-1,1.1818938E0,9.5164114E-1,1.3964326E0,3.9261973E-1,1.3655266E0,1.3450003E0,1.3993262E-1,2.8975198E-1,1.2690643E0,1.1429096E0,1.4143971E0,-1.1417069E-1,1.3457426E0,1.1462416E-1,9.3881446E-1,1.063191E0,1.4246053E0,9.5746255E-1,1.3858635E0,1.3396955E0,1.4222944E-1,1.3379706E0,1.4211597E-1,-7.6087203E-4,1.22720875E-1,-2.1308772E-1,9.43178E-2,-2.1079718E-1,1.0780972E-1,-1.505608E-1,1.4278583E-1,6.976978E-2,1.4100328E-1,1.2638284E-1,1.4166622E-1,1.2864733E-1,1.4160998E-1,1.0806898E-1,1.3398325E-1],"categories":[],"categories_nodes":[],"categories_segments":[],"categories_sizes":[],"default_left":[0,0,0,0,0,0,0,0,0,0,0,0,0,0,0,0,0,0,0,0,0,0,0,0,0,0,0,0,0,0,0,0,0,0,0,0,0,0,0,0,0],"id":5,"left_children":[1,-1,3,5,7,9,11,13,-1,15,17,19,21,-1,23,25,27,29,31,33,35,37,-1,39,-1,-1,-1,-1,-1,-1,-1,-1,-1,-1,-1,-1,-1,-1,-1,-1,-1],"loss_changes":[8.980531E5,0E0,1.4414375E4,3.2567586E4,2.059375E1,5.398551E3,8.782969E2,1.6439453E1,0E0,6.0918716E3,1.9989746E2,6.5487305E2,3.7234375E1,0E0,2.8291016E0,5.739967E3,1.5454785E2,1.3041553E2,3.6273926E1,9.704238E2,2.189746E1,2.403125E1,0E0,2.0634766E0,0E0,0E0,0E0,0E0,0E0,0E0,0E0,0E0,0E0,0E0,0E0,0E0,0E0,0E0,0E0,0E0,0E0],"parents":[2147483647,0,0,2,2,3,3,4,4,5,5,6,6,7,7,9,9,10,10,11,11,12,12,14,14,15,15,16,16,17,17,18,18,19,19,20,20,21,21,23,23],"right_children":[2,-1,4,6,8,10,12,14,-1,16,18,20,22,-1,24,26,28,30,32,34,36,38,-1,40,-1,-1,-1,-1,-1,-1,-1,-1,-1,-1,-1,-1,-1,-1,-1,-1,-1],"split_conditions":[1E0,-1.4243904E-1,3E0,3.94375E1,4E0,1.8050356E0,7.503371E1,3E0,1.3993262E-1,2E0,2.1803997E0,2.092047E0,9.7461E1,-1.1417069E-1,8.3003334E1,4.8465466E0,1E0,5.81E0,2.8142104E0,5.18257E0,2.335215E0,2.335215E0,1.4222944E-1,-6.1607857E1,1.4211597E-1,-7.6087203E-4,1.22720875E-1,-2.1308772E-1,9.43178E-2,-2.1079718E-1,1.0780972E-1,-1.505608E-1,1.4278583E-1,6.976978E-2,1.4100328E-1,1.2638284E-1,1.4166622E-1,1.2864733E-1,1.4160998E-1,1.0806898E-1,1.3398325E-1],"split_indices":[5,0,5,7,5,6,7,3,0,5,6,6,7,0,7,0,1,7,0,0,6,6,0,7,0,0,0,0,0,0,0,0,0,0,0,0,0,0,0,0,0],"split_type":[0,0,0,0,0,0,0,0,0,0,0,0,0,0,0,0,0,0,0,0,0,0,0,0,0,0,0,0,0,0,0,0,0,0,0,0,0,0,0,0,0],"sum_hessian":[5.335379E5,2.4171225E5,2.9182566E5,1.4076056E5,1.510651E5,5.9881938E4,8.087862E4,8.0710786E3,1.4299402E5,5.3593082E4,6.288856E3,1.4563374E4,6.631525E4,1.9500947E0,8.0691284E3,4.22063E4,1.1386782E4,2.7098918E3,3.578964E3,8.261951E3,6.3014224E3,6.356776E3,5.995847E4,7.3322466E3,7.368817E2,3.802925E4,4.1770483E3,1.5471627E1,1.1371311E4,1.2021346E1,2.6978706E3,3.456614E0,3.5755073E3,5.2507085E3,3.0112424E3,1.2783174E3,5.023105E3,3.7573176E3,2.5994585E3,5.6859608E1,7.275387E3],"tree_param":{"num_deleted":"0","num_feature":"9","num_nodes":"41","size_leaf_vector":"1"}},{"base_weights":[-2.1050032E-3,-1.3680476E-1,1.1208469E0,8.9178246E-1,1.3380126E0,3.464302E-1,1.2946033E0,1.2751617E0,1.3412884E-1,2.17168E-1,8.737244E-1,1.0431087E0,1.3570776E0,1.2646345E0,1.3629141E-1,1.0414862E-1,1.071467E0,8.459115E-1,1.313951E0,8.4673524E-1,1.3257768E0,1.2769626E0,1.3656364E-1,1.0492874E0,1.2681613E0,-2.5590282E-4,1.1881732E-1,8.011743E-2,1.3300677E-1,-1.9070229E-1,8.5036434E-2,1.20484866E-1,1.3643913E-1,5.7445377E-2,1.3106842E-1,1.2137406E-1,1.3571845E-1,1.22613505E-1,1.3565123E-1,-2.229652E-1,1.1937797E-1,1.2693006E-1,9.620153E-2],"categories":[],"categories_nodes":[],"categories_segments":[],"categories_sizes":[],"default_left":[0,0,0,0,0,0,0,0,0,0,0,0,0,0,0,0,0,0,0,0,0,0,0,0,0,0,0,0,0,0,0,0,0,0,0,0,0,0,0,0,0,0,0],"id":6,"left_children":[1,-1,3,5,7,9,11,13,-1,15,17,19,21,23,-1,25,27,29,31,33,35,37,-1,39,41,-1,-1,-1,-1,-1,-1,-1,-1,-1,-1,-1,-1,-1,-1,-1,-1,-1,-1],"loss_changes":[7.726173E5,0E0,1.37501875E4,2.955436E4,2.7515625E1,3.895624E3,1.2143672E3,4.7890625E0,0E0,4.432198E3,1.3666797E2,8.53791E2,4.0757812E1,3.4609375E0,0E0,4.689802E3,3.7382617E2,1.3139844E2,2.026123E0,1.1476299E3,2.0561523E1,2.258789E1,0E0,5.356742E1,9.423828E-1,0E0,0E0,0E0,0E0,0E0,0E0,0E0,0E0,0E0,0E0,0E0,0E0,0E0,0E0,0E0,0E0,0E0,0E0],"parents":[2147483647,0,0,2,2,3,3,4,4,5,5,6,6,7,7,9,9,10,10,11,11,12,12,13,13,15,15,16,16,17,17,18,18,19,19,20,20,21,21,23,23,24,24],"right_children":[2,-1,4,6,8,10,12,14,-1,16,18,20,22,24,-1,26,28,30,32,34,36,38,-1,40,42,-1,-1,-1,-1,-1,-1,-1,-1,-1,-1,-1,-1,-1,-1,-1,-1,-1,-1],"split_conditions":[1E0,-1.3680476E-1,3E0,3.6165455E1,4E0,2E0,7.503371E1,8.3003334E1,1.3412884E-1,1.6834639E0,1.8788968E0,2.092047E0,9.7461E1,-5.3935665E1,1.3629141E-1,4.8465466E0,2.092047E0,1E0,2.092047E0,5.1284184E0,2.335215E0,2.335215E0,1.3656364E-1,2.547337E-1,6.5175E1,-2.5590282E-4,1.1881732E-1,8.011743E-2,1.3300677E-1,-1.9070229E-1,8.5036434E-2,1.20484866E-1,1.3643913E-1,5.7445377E-2,1.3106842E-1,1.2137406E-1,1.3571845E-1,1.22613505E-1,1.3565123E-1,-2.229652E-1,1.1937797E-1,1.2693006E-1,9.620153E-2],"split_indices":[5,0,5,7,5,5,7,7,0,6,6,6,7,7,0,0,6,1,6,0,6,6,0,6,7,0,0,0,0,0,0,0,0,0,0,0,0,0,0,0,0,0,0],"split_type":[0,0,0,0,0,0,0,0,0,0,0,0,0,0,0,0,0,0,0,0,0,0,0,0,0,0,0,0,0,0,0,0,0,0,0,0,0,0,0,0,0,0,0],"sum_hessian":[5.0369675E5,2.2726033E5,2.7643644E5,1.3453514E5,1.419013E5,5.715656E4,7.737858E4,7.04878E3,1.3485252E5,4.5904766E4,1.1251795E4,1.5400491E4,6.1978086E4,6.3075073E3,7.412727E2,4.0542344E4,5.362422E3,1.0585912E4,6.658827E2,9.089725E3,6.310766E3,5.9966147E3,5.5981473E4,1.064455E2,6.201062E3,3.6910043E4,3.6323E3,2.623941E3,2.738481E3,1.6404915E1,1.0569508E4,2.1839055E2,4.4749213E2,5.729466E3,3.3602593E3,1.3904512E3,4.920315E3,3.6688499E3,2.327765E3,3.8836472E0,1.0256186E2,6.1749365E3,2.6125286E1],"tree_param":{"num_deleted":"0","num_feature":"9","num_nodes":"43","size_leaf_vector":"1"}},{"base_weights":[1.3624663E-3,-1.3209882E-1,1.0670567E0,8.3603257E-1,1.2890563E0,3.1919864E-1,1.254646E0,1.2238438E0,1.2925719E-1,2.0443897E-1,1.1864613E0,1.0153416E0,1.3091615E0,-1.0956603E-1,1.2245775E0,5.2464206E-2,7.950742E-1,7.142938E-1,1.2460951E0,1.2627871E0,8.2543606E-1,1.2225112E0,1.3182527E-1,1.2149037E0,1.3154463E-1,-2.3418544E-2,4.7130473E-2,-1.7462103E-1,7.995102E-2,-1.0395874E-1,8.782129E-2,1.0867564E-1,1.2801039E-1,1.3026424E-1,1.1540003E-1,6.0177233E-2,1.3125406E-1,1.3180344E-1,1.1691948E-1,1.1926114E-1,1.24445096E-1],"categories":[],"categories_nodes":[],"categories_segments":[],"categories_sizes":[],"default_left":[0,0,0,0,0,0,0,0,0,0,0,0,0,0,0,0,0,0,0,0,0,0,0,0,0,0,0,0,0,0,0,0,0,0,0,0,0,0,0,0,0],"id":7,"left_children":[1,-1,3,5,7,9,11,13,-1,15,17,19,21,-1,23,25,27,29,31,33,35,37,-1,39,-1,-1,-1,-1,-1,-1,-1,-1,-1,-1,-1,-1,-1,-1,-1,-1,-1],"loss_changes":[6.7129675E5,0E0,1.3527375E4,2.7966492E4,2.925E1,5.757124E3,9.303828E2,1.3083008E1,0E0,4.585751E3,1.8944824E2,6.218506E2,4.4210938E1,0E0,4.4648438E0,4.878693E3,1.19257324E2,2.1951324E2,3.1125E1,2.344336E1,8.166006E2,2.6658203E1,0E0,2.6308594E0,0E0,0E0,0E0,0E0,0E0,0E0,0E0,0E0,0E0,0E0,0E0,0E0,0E0,0E0,0E0,0E0,0E0],"parents":[2147483647,0,0,2,2,3,3,4,4,5,5,6,6,7,7,9,9,10,10,11,11,12,12,14,14,15,15,16,16,17,17,18,18,19,19,20,20,21,21,23,23],"right_children":[2,-1,4,6,8,10,12,14,-1,16,18,20,22,-1,24,26,28,30,32,34,36,38,-1,40,-1,-1,-1,-1,-1,-1,-1,-1,-1,-1,-1,-1,-1,-1,-1,-1,-1],"split_conditions":[1E0,-1.3209882E-1,3E0,3.94375E1,4E0,1.1369937E2,7.503371E1,3E0,1.2925719E-1,2E0,1.2183546E2,5.1260715E1,9.7461E1,-1.0956603E-1,5.18257E0,7.8440742E0,1E0,1.1E1,1.362475E2,3.95724E1,1.2183546E2,5.6852665E1,1.3182527E-1,2.3E1,1.3154463E-1,-2.3418544E-2,4.7130473E-2,-1.7462103E-1,7.995102E-2,-1.0395874E-1,8.782129E-2,1.0867564E-1,1.2801039E-1,1.3026424E-1,1.1540003E-1,6.0177233E-2,1.3125406E-1,1.3180344E-1,1.1691948E-1,1.1926114E-1,1.24445096E-1],"split_indices":[5,0,5,7,5,4,7,3,0,5,4,4,7,0,0,7,1,3,4,4,4,4,0,3,0,0,0,0,0,0,0,0,0,0,0,0,0,0,0,0,0],"split_type":[0,0,0,0,0,0,0,0,0,0,0,0,0,0,0,0,0,0,0,0,0,0,0,0,0,0,0,0,0,0,0,0,0,0,0,0,0,0,0,0,0],"sum_hessian":[4.7635794E5,2.1258044E5,2.637775E5,1.2926375E5,1.3451373E5,5.7846418E4,7.1417336E4,6.8983027E3,1.2761544E5,5.1087547E4,6.758872E3,1.3254481E4,5.816285E4,1.7097076E0,6.8965933E3,4.063337E4,1.0454175E4,7.5936334E2,5.999509E3,5.752878E3,7.501603E3,5.5357056E3,5.2627145E4,6.2460156E3,6.505777E2,2.4123777E4,1.6509596E4,1.753238E1,1.0436643E4,6.4448044E1,6.9491534E2,1.0610804E3,4.9384287E3,4.202336E3,1.550542E3,5.142539E3,2.3590642E3,1.9744663E3,3.561239E3,3.583637E3,2.6623784E3],"tree_param":{"num_deleted":"0","num_feature":"9","num_nodes":"41","size_leaf_vector":"1"}},{"base_weights":[-1.2890983E-3,-1.2812664E-1,1.0189466E0,7.8924304E-1,1.246826E0,3.1240186E-1,1.2217336E0,1.1828655E0,1.250355E-1,2.0035565E-1,7.8370804E-1,1.0388348E0,1.279141E-1,-1.0908037E-1,1.183699E0,1.3737191E-1,1.1870841E0,5.6157535E-1,8.4203196E-1,9.450484E-1,1.1847395E0,1.1742995E0,1.2736072E-1,-4.2715906E-3,4.637777E-2,8.5140966E-2,1.2305134E-1,-4.94431E-2,6.483538E-2,-3.9369654E-2,8.535575E-2,1.1509504E-1,6.395955E-2,1.1858567E-1,-2.2070841E-1,8.6665094E-2,1.1767488E-1],"categories":[],"categories_nodes":[],"categories_segments":[],"categories_sizes":[],"default_left":[0,0,0,0,0,0,0,0,0,0,0,0,0,0,0,0,0,0,0,0,0,0,0,0,0,0,0,0,0,0,0,0,0,0,0,0,0],"id":8,"left_children":[1,-1,3,5,7,9,11,13,-1,15,17,19,-1,-1,21,23,25,27,29,31,33,35,-1,-1,-1,-1,-1,-1,-1,-1,-1,-1,-1,-1,-1,-1,-1],"loss_changes":[5.828713E5,0E0,1.3000016E4,2.5508953E4,2.665625E1,3.1066426E3,6.7971875E2,1.3681641E1,0E0,2.9539255E3,1.4592236E2,2.1099023E2,0E0,0E0,4.0273438E0,2.6265234E3,4.0527832E1,2.1593591E2,1.27774414E2,5.9300977E2,2.558496E1,3.4482422E0,0E0,0E0,0E0,0E0,0E0,0E0,0E0,0E0,0E0,0E0,0E0,0E0,0E0,0E0,0E0],"parents":[2147483647,0,0,2,2,3,3,4,4,5,5,6,6,7,7,9,9,10,10,11,11,14,14,15,15,16,16,17,17,18,18,19,19,20,20,21,21],"right_children":[2,-1,4,6,8,10,12,14,-1,16,18,20,-1,-1,22,24,26,28,30,32,34,36,-1,-1,-1,-1,-1,-1,-1,-1,-1,-1,-1,-1,-1,-1,-1],"split_conditions":[1E0,-1.2812664E-1,3E0,4.318353E1,4E0,2E0,5.277298E0,3E0,1.250355E-1,4.95237E0,3.1780539E0,7.503371E1,1.279141E-1,-1.0908037E-1,8.3003334E1,9.958889E0,4.9977527E0,7E0,5E0,4.790653E0,2.3E1,-6.1607857E1,1.2736072E-1,-4.2715906E-3,4.637777E-2,8.5140966E-2,1.2305134E-1,-4.94431E-2,6.483538E-2,-3.9369654E-2,8.535575E-2,1.1509504E-1,6.395955E-2,1.1858567E-1,-2.2070841E-1,8.6665094E-2,1.1767488E-1],"split_indices":[5,0,5,7,5,5,0,3,0,0,0,7,0,0,7,7,0,1,3,0,1,7,0,0,0,0,0,0,0,0,0,0,0,0,0,0,0],"split_type":[0,0,0,0,0,0,0,0,0,0,0,0,0,0,0,0,0,0,0,0,0,0,0,0,0,0,0,0,0,0,0,0,0,0,0,0,0],"sum_hessian":[4.4634222E5,1.9797038E5,2.4837183E5,1.23693055E5,1.2467877E5,5.8830918E4,6.4862137E4,6.536662E3,1.1814212E5,4.7532242E4,1.1298676E4,1.5499653E4,4.9362484E4,1.9161423E0,6.5347456E3,4.4681332E4,2.8509094E3,2.3518894E3,8.946786E3,9.439499E3,6.060155E3,5.9289595E3,6.057861E2,2.8795092E4,1.5886242E4,3.2895407E2,2.5219553E3,1.7823611E2,2.1736533E3,8.2368576E1,8.864418E3,5.63694E3,3.8025588E3,6.0588096E3,1.3452973E0,4.9632263E1,5.8793276E3],"tree_param":{"num_deleted":"0","num_feature":"9","num_nodes":"37","size_leaf_vector":"1"}},{"base_weights":[2.0801509E-4,-1.2474407E-1,9.7506297E-1,7.4614537E-1,1.2098093E0,2.784108E-1,1.1705134E0,1.1380372E0,1.2138208E-1,1.17622524E-1,1.1347572E0,8.6526895E-1,1.2188678E0,-1.0369211E-1,1.138865E0,-8.925928E-3,6.4742035E-1,8.828223E-1,1.2449429E0,5.313048E-1,1.2366294E-1,1.1343734E0,1.2423763E0,1.1287749E0,1.2407527E-1,4.0967036E-2,-5.0539514E-3,6.525531E-2,-2.99039E-1,1.1570817E-1,6.153093E-2,1.1838557E-1,1.2552413E-1,4.519437E-2,9.208186E-2,9.215373E-2,1.2379086E-1,-1.5750892E-1,1.242661E-1,1.1178563E-1,1.177899E-1],"categories":[],"categories_nodes":[],"categories_segments":[],"categories_sizes":[],"default_left":[0,0,0,0,0,0,0,0,0,0,0,0,0,0,0,0,0,0,0,0,0,0,0,0,0,0,0,0,0,0,0,0,0,0,0,0,0,0,0,0,0],"id":9,"left_children":[1,-1,3,5,7,9,11,13,-1,15,17,19,21,-1,23,25,27,29,31,33,-1,35,37,39,-1,-1,-1,-1,-1,-1,-1,-1,-1,-1,-1,-1,-1,-1,-1,-1,-1],"loss_changes":[5.097089E5,0E0,1.2641172E4,2.364182E4,3.2046875E1,7.801517E3,9.206875E2,1.2278809E1,0E0,3.1983918E3,2.4753906E2,1.0588965E3,1.05671875E2,0E0,4.9345703E0,6.7080457E2,1.7369116E2,1.9949512E2,2.4326172E0,1.3868591E2,0E0,2.5767676E2,3.5773438E1,1.6958008E0,0E0,0E0,0E0,0E0,0E0,0E0,0E0,0E0,0E0,0E0,0E0,0E0,0E0,0E0,0E0,0E0,0E0],"parents":[2147483647,0,0,2,2,3,3,4,4,5,5,6,6,7,7,9,9,10,10,11,11,12,12,14,14,15,15,16,16,17,17,18,18,19,19,21,21,22,22,23,23],"right_children":[2,-1,4,6,8,10,12,14,-1,16,18,20,22,-1,24,26,28,30,32,34,-1,36,38,40,-1,-1,-1,-1,-1,-1,-1,-1,-1,-1,-1,-1,-1,-1,-1,-1,-1],"split_conditions":[1E0,-1.2474407E-1,3E0,1.6693848E0,4E0,4.95237E0,1.9083427E0,3E0,1.2138208E-1,2E0,5.18257E0,5.277298E0,2.1803997E0,-1.0369211E-1,5.18257E0,3.0769995E-1,1.6429082E0,1.2935024E0,5.277298E0,2E0,1.2366294E-1,5.277298E0,2.8142104E0,6E0,1.2407527E-1,4.0967036E-2,-5.0539514E-3,6.525531E-2,-2.99039E-1,1.1570817E-1,6.153093E-2,1.1838557E-1,1.2552413E-1,4.519437E-2,9.208186E-2,9.215373E-2,1.2379086E-1,-1.5750892E-1,1.242661E-1,1.1178563E-1,1.177899E-1],"split_indices":[5,0,5,6,5,0,6,3,0,5,0,0,6,0,0,6,6,6,0,5,0,0,0,2,0,0,0,0,0,0,0,0,0,0,0,0,0,0,0,0,0],"split_type":[0,0,0,0,0,0,0,0,0,0,0,0,0,0,0,0,0,0,0,0,0,0,0,0,0,0,0,0,0,0,0,0,0,0,0,0,0,0,0,0,0],"sum_hessian":[4.190712E5,1.8381672E5,2.3525447E5,1.19108055E5,1.1614641E5,5.66598E4,6.2448258E4,6.1629893E3,1.0998342E5,4.7703996E4,8.955803E3,8.54233E3,5.3905926E4,1.8685274E0,6.1611206E3,3.8507105E4,9.196893E3,2.727807E3,6.2279956E3,4.498902E3,4.043428E3,1.174422E4,4.2161707E4,5.616943E3,5.441777E2,3.4811306E3,3.5025973E4,9.184754E3,1.2138321E1,1.3452773E3,1.3825297E3,9.1519745E2,5.3127983E3,3.739219E3,7.5968286E2,3.846634E3,7.897586E3,3.7009425E0,4.2158008E4,4.6149536E3,1.0019895E3],"tree_param":{"num_deleted":"0","num_feature":"9","num_nodes":"41","size_leaf_vector":"1"}},{"base_weights":[-7.5606816E-4,-1.2184203E-1,9.3251276E-1,6.972734E-1,1.177927E0,2.165429E-1,1.124838E0,1.1021374E0,1.1821771E0,3.312152E-2,1.1741091E0,8.0523276E-1,1.18636E0,-9.887784E-2,1.1029655E0,1.182218E-1,9.099704E-2,-9.245931E-2,5.6831574E-1,1.0425392E0,1.199294E0,4.8618263E-1,1.2139745E0,1.0982944E0,1.2114688E0,1.0902321E0,1.1890443E-1,-1.8875187E-2,1.8400464E-2,-2.200377E-1,5.7734467E-2,4.187144E-2,1.14922605E-1,1.07373945E-1,1.2183032E-1,-5.3816915E-2,5.2511364E-2,1.0730702E-1,1.2169241E-1,8.794976E-2,1.21264175E-1,-1.4604998E-1,1.2117571E-1,9.558152E-2,1.0961223E-1],"categories":[],"categories_nodes":[],"categories_segments":[],"categories_sizes":[],"default_left":[0,0,0,0,0,0,0,0,0,0,0,0,0,0,0,0,0,0,0,0,0,0,0,0,0,0,0,0,0,0,0,0,0,0,0,0,0,0,0,0,0,0,0,0,0],"id":10,"left_children":[1,-1,3,5,7,9,11,13,15,17,19,21,23,-1,25,-1,-1,27,29,31,33,35,37,39,41,43,-1,-1,-1,-1,-1,-1,-1,-1,-1,-1,-1,-1,-1,-1,-1,-1,-1,-1,-1],"loss_changes":[4.4525372E5,0E0,1.28043125E4,2.3278215E4,3.365625E1,9.363812E3,1.1776562E3,1.1095703E1,7.8125E-2,3.0072942E3,2.7148438E1,1.2616191E3,1.0980469E2,0E0,5.0356445E0,0E0,0E0,9.648248E2,2.1384912E2,9.167029E1,1.5844727E1,2.1712476E2,4.5751953E-1,2.7819336E2,3.1886719E1,2.946289E0,0E0,0E0,0E0,0E0,0E0,0E0,0E0,0E0,0E0,0E0,0E0,0E0,0E0,0E0,0E0,0E0,0E0,0E0,0E0],"parents":[2147483647,0,0,2,2,3,3,4,4,5,5,6,6,7,7,8,8,9,9,10,10,11,11,12,12,14,14,17,17,18,18,19,19,20,20,21,21,22,22,23,23,24,24,25,25],"right_children":[2,-1,4,6,8,10,12,14,16,18,20,22,24,-1,26,-1,-1,28,30,32,34,36,38,40,42,44,-1,-1,-1,-1,-1,-1,-1,-1,-1,-1,-1,-1,-1,-1,-1,-1,-1,-1,-1],"split_conditions":[1E0,-1.2184203E-1,3E0,1.630481E0,4E0,1.2183546E2,1.9083427E0,3E0,5.3E1,2E0,1.362475E2,1.1369937E2,2.1803997E0,-9.887784E-2,4.95237E0,1.182218E-1,9.099704E-2,1.2820534E0,4E0,1.3E1,4.4398236E0,3.1501687E0,1.1673E2,9.9415E1,2.8142104E0,8E0,1.1890443E-1,-1.8875187E-2,1.8400464E-2,-2.200377E-1,5.7734467E-2,4.187144E-2,1.14922605E-1,1.07373945E-1,1.2183032E-1,-5.3816915E-2,5.2511364E-2,1.0730702E-1,1.2169241E-1,8.794976E-2,1.21264175E-1,-1.4604998E-1,1.2117571E-1,9.558152E-2,1.0961223E-1],"split_indices":[5,0,5,6,5,4,6,3,5,5,4,4,6,0,0,0,0,6,3,3,0,0,4,4,0,3,0,0,0,0,0,0,0,0,0,0,0,0,0,0,0,0,0,0,0],"split_type":[0,0,0,0,0,0,0,0,0,0,0,0,0,0,0,0,0,0,0,0,0,0,0,0,0,0,0,0,0,0,0,0,0,0,0,0,0,0,0,0,0,0,0,0,0],"sum_hessian":[3.918059E5,1.7000062E5,2.2180528E5,1.13252266E5,1.08553016E5,5.3312312E4,5.9939957E4,5.777879E3,1.0277514E5,4.474287E4,8.569442E3,9.677846E3,5.026211E4,1.8149841E0,5.776064E3,1.02756336E5,1.8804743E1,3.624012E4,8.502749E3,1.3836141E3,7.1858286E3,5.436491E3,4.2413545E3,1.116104E4,3.910107E4,5.0436406E3,7.324234E2,2.6878605E4,9.361517E3,2.6849009E1,8.475899E3,2.027877E2,1.1808264E3,9.524496E2,6.233379E3,1.985821E2,5.2379087E3,9.444528E1,4.146909E3,3.8338628E3,7.3271777E3,3.6718209E0,3.90974E4,2.1858746E2,4.825053E3],"tree_param":{"num_deleted":"0","num_feature":"9","num_nodes":"45","size_leaf_vector":"1"}},{"base_weights":[1.9295648E-3,-1.1933638E-1,8.976256E-1,6.647434E-1,1.1492494E0,2.4645919E-1,1.116677E0,1.0671053E0,1.1538517E0,1.5942939E-1,1.1097217E0,8.677761E-1,1.1830928E0,-8.988093E-2,1.0678381E0,1.154029E-1,1.0728903E0,7.0093274E-2,1.06358E0,9.4574034E-1,1.1448343E0,6.915757E-1,1.1557356E0,1.0894743E0,1.1890783E-1,1.0551045E0,1.1845013E-1,8.07431E-1,1.1185567E0,-4.3123816E-3,5.6068446E-2,8.437205E-2,1.1822329E-1,-3.4616584E-1,9.922307E-2,1.067876E-1,1.1788569E-1,4.574321E-2,1.13954805E-1,1.0129447E-1,1.1788457E-1,1.041308E-1,1.20006025E-1,9.508939E-2,1.0654628E-1,-3.6341718E-1,1.1070912E-1,1.14557624E-1,8.11253E-2],"categories":[],"categories_nodes":[],"categories_segments":[],"categories_sizes":[],"default_left":[0,0,0,0,0,0,0,0,0,0,0,0,0,0,0,0,0,0,0,0,0,0,0,0,0,0,0,0,0,0,0,0,0,0,0,0,0,0,0,0,0,0,0,0,0,0,0,0,0],"id":11,"left_children":[1,-1,3,5,7,9,11,13,15,17,19,21,23,-1,25,-1,27,29,31,33,35,37,39,41,-1,43,-1,45,47,-1,-1,-1,-1,-1,-1,-1,-1,-1,-1,-1,-1,-1,-1,-1,-1,-1,-1,-1,-1],"loss_changes":[3.9219138E5,0E0,1.2270078E4,2.055834E4,3.68125E1,4.2432344E3,8.631172E2,8.671875E0,1.328125E-1,4.144383E3,2.8699219E1,5.5805664E2,2.1832031E1,0E0,6.7001953E0,0E0,1.7929688E0,2.5937266E3,1.1936182E2,1.9153094E2,9.8828125E0,7.1647437E2,1.2598145E1,1.2020752E1,0E0,4.205078E0,0E0,5.2257217E1,6.247406E-1,0E0,0E0,0E0,0E0,0E0,0E0,0E0,0E0,0E0,0E0,0E0,0E0,0E0,0E0,0E0,0E0,0E0,0E0,0E0,0E0],"parents":[2147483647,0,0,2,2,3,3,4,4,5,5,6,6,7,7,8,8,9,9,10,10,11,11,12,12,14,14,16,16,17,17,18,18,19,19,20,20,21,21,22,22,23,23,25,25,27,27,28,28],"right_children":[2,-1,4,6,8,10,12,14,16,18,20,22,24,-1,26,-1,28,30,32,34,36,38,40,42,-1,44,-1,46,48,-1,-1,-1,-1,-1,-1,-1,-1,-1,-1,-1,-1,-1,-1,-1,-1,-1,-1,-1,-1],"split_conditions":[1E0,-1.1933638E-1,3E0,4.318353E1,4E0,1.2183546E2,8.3003334E1,3E0,4.5E1,1.9083427E0,1.362475E2,2.1803997E0,9.7461E1,-8.988093E-2,7.503371E1,1.154029E-1,2E0,2E0,2.1803997E0,5E0,5.826168E-1,1.1149913E2,2.335215E0,1.2183546E2,1.1890783E-1,1.1E1,1.1845013E-1,1.3605586E0,1.594647E1,-4.3123816E-3,5.6068446E-2,8.437205E-2,1.1822329E-1,-3.4616584E-1,9.922307E-2,1.067876E-1,1.1788569E-1,4.574321E-2,1.13954805E-1,1.0129447E-1,1.1788457E-1,1.041308E-1,1.20006025E-1,9.508939E-2,1.0654628E-1,-3.6341718E-1,1.1070912E-1,1.14557624E-1,8.11253E-2],"split_indices":[5,0,5,7,5,4,7,3,5,6,4,6,7,0,7,0,2,5,6,3,6,4,6,4,0,3,0,6,7,0,0,0,0,0,0,0,0,0,0,0,0,0,0,0,0,0,0,0,0],"split_type":[0,0,0,0,0,0,0,0,0,0,0,0,0,0,0,0,0,0,0,0,0,0,0,0,0,0,0,0,0,0,0,0,0,0,0,0,0,0,0,0,0,0,0,0,0,0,0,0,0],"sum_hessian":[3.6631997E5,1.5691666E5,2.0940331E5,1.0875361E5,1.006497E5,5.6480242E4,5.2273367E4,5.352197E3,9.52975E4,5.130874E4,5.171505E3,1.1013402E4,4.1259965E4,1.5376823E0,5.350659E3,9.507609E4,2.2140628E2,4.6695945E4,4.6127925E3,9.1698285E2,4.254522E3,6.834699E3,4.1787026E3,2.4904082E3,3.8769555E4,4.8331704E3,5.174888E2,3.523958E1,1.861667E2,3.794096E4,8.754984E3,1.6196837E3,2.993109E3,8.804824E0,9.08178E2,1.314205E3,2.9403171E3,4.489943E3,2.3447563E3,5.883399E2,3.5903628E3,1.7420586E3,7.4834955E2,4.453632E2,4.387807E3,1.5239376E0,3.371564E1,1.6861365E2,1.7553045E1],"tree_param":{"num_deleted":"0","num_feature":"9","num_nodes":"49","size_leaf_vector":"1"}},{"base_weights":[7.1671203E-4,-1.1716107E-1,8.608498E-1,6.2877285E-1,1.1228857E0,2.3092055E-1,1.0927076E0,1.0306828E0,1.1280596E0,1.5342595E-1,1.0642524E0,8.603732E-1,1.16769254E-1,1.0175753E0,1.15979806E-1,1.1281065E0,8.275496E-2,-2.4152769E-2,4.1637832E-1,8.71325E-1,1.1046262E0,1.065494E0,5.369416E-1,-7.427793E-2,1.0181588E0,1.1346723E-1,1.12567656E-1,-1.3096215E-2,4.3505177E-2,7.1751736E-2,3.3889848E-3,-2.8023863E-1,9.174603E-2,1.0056666E-1,1.15064226E-1,1.1365304E-1,9.002047E-2,2.7803218E-2,8.868805E-2,6.526914E-2,1.0212382E-1],"categories":[],"categories_nodes":[],"categories_segments":[],"categories_sizes":[],"default_left":[0,0,0,0,0,0,0,0,0,0,0,0,0,0,0,0,0,0,0,0,0,0,0,0,0,0,0,0,0,0,0,0,0,0,0,0,0,0,0,0,0],"id":12,"left_children":[1,-1,3,5,7,9,11,13,15,17,19,21,-1,23,-1,25,-1,27,29,31,33,35,37,-1,39,-1,-1,-1,-1,-1,-1,-1,-1,-1,-1,-1,-1,-1,-1,-1,-1],"loss_changes":[3.4425288E5,0E0,1.19745E4,1.927557E4,4.2953125E1,3.630535E3,8.3891016E2,7.1567383E0,3.046875E-1,2.4019429E3,3.629492E1,7.8010254E2,0E0,5.357422E0,0E0,1.171875E-1,0E0,1.506048E3,2.3883027E3,1.436684E2,1.6838379E1,8.351172E1,4.1368726E2,0E0,4.3745117E0,0E0,0E0,0E0,0E0,0E0,0E0,0E0,0E0,0E0,0E0,0E0,0E0,0E0,0E0,0E0,0E0],"parents":[2147483647,0,0,2,2,3,3,4,4,5,5,6,6,7,7,8,8,9,9,10,10,11,11,13,13,15,15,17,17,18,18,19,19,20,20,21,21,22,22,24,24],"right_children":[2,-1,4,6,8,10,12,14,16,18,20,22,-1,24,-1,26,-1,28,30,32,34,36,38,-1,40,-1,-1,-1,-1,-1,-1,-1,-1,-1,-1,-1,-1,-1,-1,-1,-1],"split_conditions":[1E0,-1.1716107E-1,3E0,4.462375E1,4E0,1.2183546E2,5.277298E0,8.3003334E1,5.3E1,7.8440742E0,1.362475E2,6.6611176E1,1.16769254E-1,3E0,1.15979806E-1,1E1,8.275496E-2,2E0,4.75E1,5E0,4.6519585E0,5.0841305E1,5.1284184E0,-7.427793E-2,-6.1607857E1,1.1346723E-1,1.12567656E-1,-1.3096215E-2,4.3505177E-2,7.1751736E-2,3.3889848E-3,-2.8023863E-1,9.174603E-2,1.0056666E-1,1.15064226E-1,1.1365304E-1,9.002047E-2,2.7803218E-2,8.868805E-2,6.526914E-2,1.0212382E-1],"split_indices":[5,0,5,7,5,4,0,7,5,7,4,4,0,3,0,5,0,5,4,3,0,4,0,0,7,0,0,0,0,0,0,0,0,0,0,0,0,0,0,0,0],"split_type":[0,0,0,0,0,0,0,0,0,0,0,0,0,0,0,0,0,0,0,0,0,0,0,0,0,0,0,0,0,0,0,0,0,0,0,0,0,0,0,0,0],"sum_hessian":[3.413976E5,1.444786E5,1.96919E5,1.04431086E5,9.2487914E4,5.6220273E4,4.821081E4,4.924849E3,8.756306E4,5.1438043E4,4.78223E3,1.1766322E4,3.644449E4,4.479029E3,4.4582013E2,8.754666E4,1.6411688E1,3.0703836E4,2.0734207E4,8.314922E2,3.9507378E3,7.19864E3,4.5676816E3,1.062624E0,4.4779663E3,2.3522562E4,6.402409E4,2.4910463E4,5.7933726E3,1.1600265E4,9.133941E3,9.571611E0,8.219206E2,1.2612432E3,2.6894946E3,5.0307134E3,2.167927E3,2.6263315E3,1.94135E3,3.9195194E1,4.438771E3],"tree_param":{"num_deleted":"0","num_feature":"9","num_nodes":"41","size_leaf_vector":"1"}},{"base_weights":[-3.6195973E-3,-1.1526363E-1,8.2217616E-1,5.835663E-1,1.0994365E0,1.9353259E-1,1.0760747E0,1.0033925E0,1.1049703E0,5.8205094E-2,1.0329379E0,9.024534E-1,1.1471674E0,9.902327E-1,1.1418692E-1,1.10502E0,7.9398066E-2,-3.5124883E-2,4.8218042E-1,7.484697E-1,1.1353645E0,5.634202E-1,1.0884733E0,1.1123012E0,1.1492789E-1,-7.799375E-2,9.909291E-1,1.1122046E0,1.1023684E-1,6.240173E-2,-8.56086E-3,1.7379494E-2,5.5678785E-2,-3.2356307E-1,7.693632E-2,1.00216605E-1,1.1538776E-1,6.7245334E-2,2.409156E-2,9.281336E-2,1.14495434E-1,8.88565E-2,1.1398699E-1,5.7178773E-2,9.94562E-2,1.112358E-1,8.3041616E-2],"categories":[],"categories_nodes":[],"categories_segments":[],"categories_sizes":[],"default_left":[0,0,0,0,0,0,0,0,0,0,0,0,0,0,0,0,0,0,0,0,0,0,0,0,0,0,0,0,0,0,0,0,0,0,0,0,0,0,0,0,0,0,0,0,0,0,0],"id":13,"left_children":[1,-1,3,5,7,9,11,13,15,17,19,21,23,25,-1,27,-1,29,31,33,35,37,39,41,-1,-1,43,45,-1,-1,-1,-1,-1,-1,-1,-1,-1,-1,-1,-1,-1,-1,-1,-1,-1,-1,-1],"loss_changes":[3.011475E5,0E0,1.2216141E4,1.9065508E4,4.4289062E1,6.291857E3,5.403789E2,7.3686523E0,3.671875E-1,1.8874988E3,2.2321191E2,8.033379E2,1.0117188E0,6.0336914E0,0E0,3.203125E-1,0E0,1.3009878E3,1.9790735E2,1.7219946E2,1.278125E1,1.5872107E2,7.347168E1,1.0138428E1,0E0,0E0,5.9257812E0,9.765625E-3,0E0,0E0,0E0,0E0,0E0,0E0,0E0,0E0,0E0,0E0,0E0,0E0,0E0,0E0,0E0,0E0,0E0,0E0,0E0],"parents":[2147483647,0,0,2,2,3,3,4,4,5,5,6,6,7,7,8,8,9,9,10,10,11,11,12,12,13,13,15,15,17,17,18,18,19,19,20,20,21,21,22,22,23,23,26,26,27,27],"right_children":[2,-1,4,6,8,10,12,14,16,18,20,22,24,26,-1,28,-1,30,32,34,36,38,40,42,-1,-1,44,46,-1,-1,-1,-1,-1,-1,-1,-1,-1,-1,-1,-1,-1,-1,-1,-1,-1,-1,-1],"split_conditions":[5E-1,-1.1526363E-1,7.5E-1,1.764594E0,8E-1,4.9977527E0,9.7461E1,5.18257E0,9.814815E-1,6.666667E-1,5.18257E0,2.092047E0,5.277298E0,3E0,1.1418692E-1,9.0909094E-1,7.9398066E-2,-5.3935665E1,3.1068263E0,3E0,5.277298E0,2.3E1,2.335215E0,2.335215E0,1.1492789E-1,-7.799375E-2,-6.1607857E1,4.1E1,1.1023684E-1,6.240173E-2,-8.56086E-3,1.7379494E-2,5.5678785E-2,-3.2356307E-1,7.693632E-2,1.00216605E-1,1.1538776E-1,6.7245334E-2,2.409156E-2,9.281336E-2,1.14495434E-1,8.88565E-2,1.1398699E-1,5.7178773E-2,9.94562E-2,1.112358E-1,8.3041616E-2],"split_indices":[8,0,8,6,8,0,7,0,8,8,0,6,0,3,0,8,0,7,0,1,0,3,6,6,0,0,7,3,0,0,0,0,0,0,0,0,0,0,0,0,0,0,0,0,0,0,0],"split_type":[0,0,0,0,0,0,0,0,0,0,0,0,0,0,0,0,0,0,0,0,0,0,0,0,0,0,0,0,0,0,0,0,0,0,0,0,0,0,0,0,0,0,0,0,0,0,0],"sum_hessian":[3.1737853E5,1.3271614E5,1.8466238E5,9.925058E4,8.541179E4,5.538822E4,4.3862363E4,4.663019E3,8.074877E4,4.769929E4,7.688928E3,1.2746577E4,3.1115787E4,4.2657812E3,3.9723776E2,8.073329E4,1.54857645E1,3.9094344E4,8.604946E3,2.0377682E3,5.65116E3,4.5173833E3,8.229193E3,1.8069089E3,2.9308879E4,1.2375622E0,4.2645435E3,2.1651959E4,5.908133E4,2.7804143E3,3.631393E4,1.6769016E3,6.9280454E3,9.828028E0,2.0279401E3,6.963272E2,4.954833E3,3.3752014E3,1.1421819E3,2.1482175E3,6.080976E3,2.0186754E2,1.6050414E3,3.8005924E1,4.2265376E3,2.1637236E4,1.4723683E1],"tree_param":{"num_deleted":"0","num_feature":"9","num_nodes":"47","size_leaf_vector":"1"}},{"base_weights":[-5.2520614E-3,-1.1360174E-1,7.882092E-1,5.479699E-1,1.0778606E0,1.6788255E-1,1.0458592E0,9.691379E-1,1.0840611E0,9.765996E-3,1.0126909E0,8.544855E-1,1.1297352E0,9.5463324E-1,1.1207171E-1,1.0923208E-1,1.081655E0,-8.344329E-2,4.3887535E-1,5.978535E-1,1.0631863E0,5.2074146E-1,1.0634537E0,1.1179228E0,1.1350321E-1,5.605788E-1,9.582167E-1,1.08189546E-1,9.9310976E-1,-1.4890687E-1,-6.890436E-3,-4.33485E-3,4.6987038E-2,-1.5412302E-1,6.6345006E-2,8.877938E-2,1.0964692E-1,-2.1597134E-1,5.30846E-2,-3.48184E-1,1.0699731E-1,7.0402294E-2,1.1247461E-1,-2.896596E-1,9.274917E-2,9.431774E-2,1.02733605E-1,5.536176E-2,1.0304461E-1],"categories":[],"categories_nodes":[],"categories_segments":[],"categories_sizes":[],"default_left":[0,0,0,0,0,0,0,0,0,0,0,0,0,0,0,0,0,0,0,0,0,0,0,0,0,0,0,0,0,0,0,0,0,0,0,0,0,0,0,0,0,0,0,0,0,0,0,0,0],"id":14,"left_children":[1,-1,3,5,7,9,11,13,15,17,19,21,23,25,-1,-1,27,29,31,33,35,37,39,41,-1,43,45,-1,47,-1,-1,-1,-1,-1,-1,-1,-1,-1,-1,-1,-1,-1,-1,-1,-1,-1,-1,-1,-1],"loss_changes":[2.650787E5,0E0,1.2080664E4,1.7959883E4,5.2015625E1,7.189289E3,6.5853125E2,8.287842E0,2.96875E-1,1.8133698E3,1.7710645E2,8.7289355E2,5.15625E-1,4.9577637E0,0E0,0E0,1.5625E-1,7.6108997E2,1.2094739E2,1.3054135E2,4.3176758E1,1.318103E2,2.3191895E2,2.4368164E1,0E0,5.0227814E1,3.0385742E0,0E0,2.1961975E0,0E0,0E0,0E0,0E0,0E0,0E0,0E0,0E0,0E0,0E0,0E0,0E0,0E0,0E0,0E0,0E0,0E0,0E0,0E0,0E0],"parents":[2147483647,0,0,2,2,3,3,4,4,5,5,6,6,7,7,8,8,9,9,10,10,11,11,12,12,13,13,16,16,17,17,18,18,19,19,20,20,21,21,22,22,23,23,25,25,26,26,28,28],"right_children":[2,-1,4,6,8,10,12,14,16,18,20,22,24,26,-1,-1,28,30,32,34,36,38,40,42,-1,44,46,-1,48,-1,-1,-1,-1,-1,-1,-1,-1,-1,-1,-1,-1,-1,-1,-1,-1,-1,-1,-1,-1],"split_conditions":[1E0,-1.1360174E-1,3E0,1.7463447E0,4E0,1.1369937E2,9.7461E1,8.3003334E1,9E0,2E0,1.2183546E2,2.092047E0,1.00935555E2,-6.1607857E1,1.1207171E-1,1.0923208E-1,4.5E1,6.7255554E0,1.388E1,4.906251E-1,5.759615E-1,5.81E0,1.174E1,2.1803997E0,1.1350321E-1,1.0351769E2,6E0,1.08189546E-1,1E0,-1.4890687E-1,-6.890436E-3,-4.33485E-3,4.6987038E-2,-1.5412302E-1,6.6345006E-2,8.877938E-2,1.0964692E-1,-2.1597134E-1,5.30846E-2,-3.48184E-1,1.0699731E-1,7.0402294E-2,1.1247461E-1,-2.896596E-1,9.274917E-2,9.431774E-2,1.02733605E-1,5.536176E-2,1.0304461E-1],"split_indices":[5,0,5,6,5,4,7,7,5,5,4,6,4,7,0,0,5,4,4,6,6,7,7,6,0,4,2,0,2,0,0,0,0,0,0,0,0,0,0,0,0,0,0,0,0,0,0,0,0],"split_type":[0,0,0,0,0,0,0,0,0,0,0,0,0,0,0,0,0,0,0,0,0,0,0,0,0,0,0,0,0,0,0,0,0,0,0,0,0,0,0,0,0,0,0,0,0,0,0,0,0],"sum_hessian":[2.9544297E5,1.2182673E5,1.7361625E5,9.490452E4,7.8711734E4,5.3819902E4,4.1084625E4,4.255316E3,7.4456414E4,4.5335754E4,8.484146E3,1.2523001E4,2.8561625E4,3.8903445E3,3.6497134E2,1.6694664E4,5.776175E4,3.7246117E4,8.0896357E3,9.2204663E2,7.5621E3,4.8232524E3,7.699748E3,8.907936E3,1.965369E4,3.6478863E1,3.8538655E3,5.7594145E4,1.676057E2,3.8026868E2,3.686585E4,4.8853632E2,7.6010996E3,2.676465E1,8.95282E2,1.2105366E3,6.3515635E3,1.7315042E1,4.8059375E3,1.0264572E1,7.6894834E3,1.4616068E2,8.761775E3,2.8385544E0,3.364031E1,3.1771997E3,6.766657E2,1.4363105E1,1.532426E2],"tree_param":{"num_deleted":"0","num_feature":"9","num_nodes":"49","size_leaf_vector":"1"}},{"base_weights":[-3.8320644E-4,-1.1214092E-1,7.613188E-1,5.256965E-1,1.0581661E0,1.8106095E-1,1.0343359E0,9.5311487E-1,1.0644807E0,1.0468833E-1,9.23351E-1,7.858783E-1,1.1157974E-1,9.383404E-1,1.10545E-1,1.0645562E0,6.119704E-2,2.0461818E-2,8.7920797E-1,5.436119E-1,9.882863E-1,3.9525533E-1,1.0484992E0,5.258192E-1,9.420319E-1,1.0732895E-1,1.0620371E0,-5.597986E-3,3.8647562E-2,6.532099E-2,1.077682E-1,-1.4579253E-1,6.1407655E-2,8.587905E-2,1.0533496E-1,3.0172527E-2,8.529574E-2,1.0517555E-1,-5.071117E-1,-2.4184774E-1,8.922653E-2,9.278401E-2,1.007458E-1,1.0622567E-1,9.54421E-2],"categories":[],"categories_nodes":[],"categories_segments":[],"categories_sizes":[],"default_left":[0,0,0,0,0,0,0,0,0,0,0,0,0,0,0,0,0,0,0,0,0,0,0,0,0,0,0,0,0,0,0,0,0,0,0,0,0,0,0,0,0,0,0,0,0],"id":15,"left_children":[1,-1,3,5,7,9,11,13,15,17,19,21,-1,23,-1,25,-1,27,29,31,33,35,37,39,41,-1,43,-1,-1,-1,-1,-1,-1,-1,-1,-1,-1,-1,-1,-1,-1,-1,-1,-1,-1],"loss_changes":[2.3557467E5,0E0,1.1489047E4,1.6053453E4,4.7195312E1,3.094795E3,7.4776953E2,8.26001E0,1.6953125E0,3.2291746E3,1.2504346E2,9.3685693E2,0E0,5.2492676E0,0E0,3.671875E-1,0E0,1.2491814E3,2.1706885E2,1.0609773E2,3.5728027E1,1.5705261E2,1.1418994E2,4.0699936E1,2.5361328E0,0E0,2.4609375E-1,0E0,0E0,0E0,0E0,0E0,0E0,0E0,0E0,0E0,0E0,0E0,0E0,0E0,0E0,0E0,0E0,0E0,0E0],"parents":[2147483647,0,0,2,2,3,3,4,4,5,5,6,6,7,7,8,8,9,9,10,10,11,11,13,13,15,15,17,17,18,18,19,19,20,20,21,21,22,22,23,23,24,24,26,26],"right_children":[2,-1,4,6,8,10,12,14,16,18,20,22,-1,24,-1,26,-1,28,30,32,34,36,38,40,42,-1,44,-1,-1,-1,-1,-1,-1,-1,-1,-1,-1,-1,-1,-1,-1,-1,-1,-1,-1],"split_conditions":[1E0,-1.1214092E-1,3E0,4.7797E1,4E0,1.1369937E2,5.277298E0,8.3003334E1,5.1E1,1.8276069E0,1.2183546E2,2.092047E0,1.1157974E-1,-6.1607857E1,1.10545E-1,9E0,6.119704E-2,2E0,2.1803997E0,4.906251E-1,4.6519585E0,2E0,8.703474E1,3.4663608E0,6E0,1.0732895E-1,4.5E1,-5.597986E-3,3.8647562E-2,6.532099E-2,1.077682E-1,-1.4579253E-1,6.1407655E-2,8.587905E-2,1.0533496E-1,3.0172527E-2,8.529574E-2,1.0517555E-1,-5.071117E-1,-2.4184774E-1,8.922653E-2,9.278401E-2,1.007458E-1,1.0622567E-1,9.54421E-2],"split_indices":[5,0,5,7,5,4,0,7,5,6,4,6,0,7,0,5,0,5,6,6,0,5,4,0,2,0,5,0,0,0,0,0,0,0,0,0,0,0,0,0,0,0,0,0,0],"split_type":[0,0,0,0,0,0,0,0,0,0,0,0,0,0,0,0,0,0,0,0,0,0,0,0,0,0,0,0,0,0,0,0,0,0,0,0,0,0,0,0,0,0,0,0,0],"sum_hessian":[2.758828E5,1.116147E5,1.642681E5,9.157962E4,7.2688484E4,5.459165E4,3.6987965E4,4.1301143E3,6.8558375E4,4.9499855E4,5.091793E3,9.135469E3,2.7852496E4,3.7714905E3,3.5862396E2,6.854558E4,1.2795537E1,4.4645797E4,4.85406E3,7.449174E2,4.3468755E3,3.6737012E3,5.4617676E3,3.472258E1,3.736768E3,1.5250184E4,5.3295395E4,3.693318E4,7.712616E3,2.2716604E3,2.5823994E3,2.4663536E1,7.2025385E2,1.4584049E3,2.8884707E3,3.0517454E3,6.21956E2,5.4596904E3,2.0769544E0,3.2234223E0,3.1499157E1,3.0831653E3,6.536027E2,5.3178E4,1.1739172E2],"tree_param":{"num_deleted":"0","num_feature":"9","num_nodes":"45","size_leaf_vector":"1"}},{"base_weights":[3.8189176E-4,-1.108528E-1,7.303108E-1,4.9497017E-1,1.0392926E0,1.658959E-1,1.0132556E0,9.159356E-1,1.0465057E0,1.0138548E-1,9.5686775E-1,7.5496876E-1,1.1020254E0,9.008806E-1,1.0919706E-1,1.0465703E0,6.5430544E-2,2.9252538E-2,8.89011E-1,8.026619E-1,1.0333415E0,3.5752776E-1,1.0276845E0,1.0743581E0,1.10407904E-1,-9.2217594E-2,9.020676E-1,1.0550325E0,1.0434766E0,-3.9171944E-3,3.654185E-2,6.477773E-2,1.0578556E-1,9.307333E-2,6.43559E-2,8.6064965E-2,1.0686164E-1,2.0430267E-2,7.004615E-2,1.0306578E-1,-3.555519E-1,-5.354977E-1,1.08542144E-1,4.667792E-2,9.0618424E-2,7.040334E-2,1.0552297E-1,1.0435708E-1,8.160573E-2],"categories":[],"categories_nodes":[],"categories_segments":[],"categories_sizes":[],"default_left":[0,0,0,0,0,0,0,0,0,0,0,0,0,0,0,0,0,0,0,0,0,0,0,0,0,0,0,0,0,0,0,0,0,0,0,0,0,0,0,0,0,0,0,0,0,0,0,0,0],"id":16,"left_children":[1,-1,3,5,7,9,11,13,15,17,19,21,23,25,-1,27,-1,29,31,33,35,37,39,41,-1,-1,43,45,47,-1,-1,-1,-1,-1,-1,-1,-1,-1,-1,-1,-1,-1,-1,-1,-1,-1,-1,-1,-1],"loss_changes":[2.0810705E5,0E0,1.1273859E4,1.5010896E4,5.86875E1,2.74685E3,7.8285156E2,8.852051E0,9.140625E-1,2.8279307E3,4.7042236E1,9.475664E2,2.578125E-1,8.2421875E0,0E0,5.546875E-1,0E0,1.0489231E3,1.6941211E2,2.6914246E1,1.5589844E1,1.8694922E2,7.433594E1,1.334707E2,0E0,0E0,5.7106934E0,4.2382812E-1,1.4453125E-1,0E0,0E0,0E0,0E0,0E0,0E0,0E0,0E0,0E0,0E0,0E0,0E0,0E0,0E0,0E0,0E0,0E0,0E0,0E0,0E0],"parents":[2147483647,0,0,2,2,3,3,4,4,5,5,6,6,7,7,8,8,9,9,10,10,11,11,12,12,13,13,15,15,17,17,18,18,19,19,20,20,21,21,22,22,23,23,26,26,27,27,28,28],"right_children":[2,-1,4,6,8,10,12,14,16,18,20,22,24,26,-1,28,-1,30,32,34,36,38,40,42,-1,-1,44,46,48,-1,-1,-1,-1,-1,-1,-1,-1,-1,-1,-1,-1,-1,-1,-1,-1,-1,-1,-1,-1],"split_conditions":[5E-1,-1.108528E-1,7.5E-1,4.7797E1,8E-1,1.2183546E2,5.277298E0,5.18257E0,9.811321E-1,1.8788968E0,4.6519585E0,2.092047E0,9.7461E1,3E0,1.0919706E-1,9.0909094E-1,6.5430544E-2,6.666667E-1,2.1803997E0,4.046379E0,1.362475E2,5.1284184E0,8.703474E1,1.068144E2,1.10407904E-1,-9.2217594E-2,-6.1607857E1,2E0,4.2E1,-3.9171944E-3,3.654185E-2,6.477773E-2,1.0578556E-1,9.307333E-2,6.43559E-2,8.6064965E-2,1.0686164E-1,2.0430267E-2,7.004615E-2,1.0306578E-1,-3.555519E-1,-5.354977E-1,1.08542144E-1,4.667792E-2,9.0618424E-2,7.040334E-2,1.0552297E-1,1.0435708E-1,8.160573E-2],"split_indices":[8,0,8,7,8,4,0,0,8,6,0,6,7,3,0,8,0,8,6,0,4,0,4,4,0,0,7,3,3,0,0,0,0,0,0,0,0,0,0,0,0,0,0,0,0,0,0,0,0],"split_type":[0,0,0,0,0,0,0,0,0,0,0,0,0,0,0,0,0,0,0,0,0,0,0,0,0,0,0,0,0,0,0,0,0,0,0,0,0,0,0,0,0,0,0,0,0,0,0,0,0],"sum_hessian":[2.5710267E5,1.0205696E5,1.5504572E5,8.801237E4,6.703334E4,5.383335E4,3.417902E4,3.7101902E3,6.3323156E4,4.9774914E4,4.0584348E3,8.744707E3,2.5434312E4,3.4235188E3,2.8667136E2,6.3311043E4,1.211129E1,4.5599797E4,4.175119E3,1.3492435E3,2.7091912E3,3.5595398E3,5.185167E3,1.7937173E3,2.3640596E4,1.722835E0,3.4217961E3,1.685888E4,4.6452164E4,3.7888676E4,7.71112E3,1.7210437E3,2.4540757E3,7.4483307E2,6.0441046E2,4.63835E2,2.2453562E3,2.461376E3,1.0981638E3,5.18258E3,2.58696E0,2.2515044E0,1.7914657E3,3.3129215E1,3.3886667E3,1.1468823E1,1.6847412E4,4.6429336E4,2.282693E1],"tree_param":{"num_deleted":"0","num_feature":"9","num_nodes":"49","size_leaf_vector":"1"}},{"base_weights":[3.019734E-3,-1.0971383E-1,7.014827E-1,4.7098106E-1,1.0212035E0,1.6742194E-1,1.0089422E0,8.911999E-1,1.0288789E0,3.7726063E-2,9.453083E-1,8.5383815E-1,1.0900869E0,8.735779E-1,1.0770947E-1,1.03833675E-1,1.0254228E0,-3.2415967E-2,3.7936556E-1,7.695445E-1,1.0818975E0,5.4306304E-1,1.0361342E0,1.0788599E0,1.0965293E-1,-8.39655E-2,8.746373E-1,1.0255119E0,6.6271774E-2,3.0589137E-2,-1.0903507E-2,-6.130817E-3,4.1368004E-2,5.8083016E-2,9.059317E-2,8.0449775E-2,1.09264135E-1,-2.1815792E-2,5.82813E-2,8.1944324E-2,1.07350424E-1,4.162958E-2,1.0834676E-1,6.0929485E-2,8.801078E-2,1.0256125E-1,7.881888E-2],"categories":[],"categories_nodes":[],"categories_segments":[],"categories_sizes":[],"default_left":[0,0,0,0,0,0,0,0,0,0,0,0,0,0,0,0,0,0,0,0,0,0,0,0,0,0,0,0,0,0,0,0,0,0,0,0,0,0,0,0,0,0,0,0,0,0,0],"id":17,"left_children":[1,-1,3,5,7,9,11,13,15,17,19,21,23,25,-1,-1,27,29,31,33,35,37,39,41,-1,-1,43,45,-1,-1,-1,-1,-1,-1,-1,-1,-1,-1,-1,-1,-1,-1,-1,-1,-1,-1,-1],"loss_changes":[1.8452275E5,0E0,1.0824117E4,1.3937916E4,6.0484375E1,5.504834E3,3.865664E2,1.0320801E1,8.28125E-1,1.1207164E3,1.8635938E2,5.9879736E2,2.7929688E-1,6.443115E0,0E0,0E0,6.9921875E-1,1.00581696E3,1.2048877E2,8.732214E1,1.2190918E1,1.185437E2,5.31084E1,2.2233398E1,0E0,0E0,4.0273438E0,2.0703125E-1,0E0,0E0,0E0,0E0,0E0,0E0,0E0,0E0,0E0,0E0,0E0,0E0,0E0,0E0,0E0,0E0,0E0,0E0,0E0],"parents":[2147483647,0,0,2,2,3,3,4,4,5,5,6,6,7,7,8,8,9,9,10,10,11,11,12,12,13,13,16,16,17,17,18,18,19,19,20,20,21,21,22,22,23,23,26,26,27,27],"right_children":[2,-1,4,6,8,10,12,14,16,18,20,22,24,26,-1,-1,28,30,32,34,36,38,40,42,-1,-1,44,46,-1,-1,-1,-1,-1,-1,-1,-1,-1,-1,-1,-1,-1,-1,-1,-1,-1,-1,-1],"split_conditions":[1E0,-1.0971383E-1,3E0,1.8276069E0,4E0,1.1369937E2,5.277298E0,5.18257E0,1E1,2E0,5.18257E0,2.1803997E0,2.335215E0,3E0,1.0770947E-1,1.03833675E-1,5.3E1,1.1E1,1.49125E1,1.362475E2,1.2183546E2,3.285038E0,2.335215E0,9.495556E1,1.0965293E-1,-8.39655E-2,1.9141428E-1,4.2E1,6.6271774E-2,3.0589137E-2,-1.0903507E-2,-6.130817E-3,4.1368004E-2,5.8083016E-2,9.059317E-2,8.0449775E-2,1.09264135E-1,-2.1815792E-2,5.82813E-2,8.1944324E-2,1.07350424E-1,4.162958E-2,1.0834676E-1,6.0929485E-2,8.801078E-2,1.0256125E-1,7.881888E-2],"split_indices":[5,0,5,6,5,4,0,0,5,5,0,6,6,3,0,0,5,3,4,4,4,0,6,4,0,0,6,3,0,0,0,0,0,0,0,0,0,0,0,0,0,0,0,0,0,0,0],"split_type":[0,0,0,0,0,0,0,0,0,0,0,0,0,0,0,0,0,0,0,0,0,0,0,0,0,0,0,0,0,0,0,0,0,0,0,0,0,0,0,0,0,0,0,0,0,0,0],"sum_hessian":[2.4013078E5,9.325037E4,1.4688042E5,8.535005E4,6.153037E4,5.4562816E4,3.078723E4,3.4367583E3,5.8093613E4,4.6766547E4,7.7962705E3,1.0578491E4,2.0208738E4,3.1443845E3,2.923739E2,1.5467095E4,4.262652E4,3.880118E4,7.965367E3,3.4121406E3,4.38413E3,3.912503E3,6.665989E3,7.4295854E3,1.2779153E4,1.4539734E0,3.1429304E3,4.2614227E4,1.2291253E1,7.164359E3,3.163682E4,5.753835E2,7.3899834E3,1.4336735E3,1.978467E3,1.6629704E2,4.2178325E3,1.9394366E2,3.7185593E3,9.8387604E2,5.6821123E3,5.1942696E1,7.3776426E3,6.575838E1,3.077172E3,4.2592848E4,2.138141E1],"tree_param":{"num_deleted":"0","num_feature":"9","num_nodes":"47","size_leaf_vector":"1"}},{"base_weights":[2.8711438E-4,-1.0870423E-1,6.688165E-1,4.36905E-1,1.0034189E0,1.4186087E-1,9.8173904E-1,8.671435E-1,1.0118239E0,8.8821754E-2,8.9172333E-1,7.045891E-1,1.0785149E0,8.4660107E-1,1.0649159E-1,1.0121561E0,8.6922216E-1,2.5885632E-2,8.538985E-1,8.106755E-1,1.0703818E0,3.3024466E-1,9.8802525E-1,1.0399984E0,1.0811994E-1,4.1754365E-1,8.5424525E-1,1.0221721E0,1.0085049E0,9.2258245E-1,2.6373154E-2,-5.943768E-2,5.347381E-3,6.5395236E-2,1.0633445E-1,5.937412E-2,8.6843714E-2,8.738395E-2,1.07804E-1,1.8842753E-2,6.410458E-2,7.235006E-2,1.0558944E-1,-3.8346562E-1,1.0510224E-1,-3.0060795E-1,7.6541744E-2,-8.520196E-2,8.554663E-2,1.0224036E-1,6.288254E-2,1.0014284E-1,1.01276375E-1,6.594841E-2,9.680801E-2],"categories":[],"categories_nodes":[],"categories_segments":[],"categories_sizes":[],"default_left":[0,0,0,0,0,0,0,0,0,0,0,0,0,0,0,0,0,0,0,0,0,0,0,0,0,0,0,0,0,0,0,0,0,0,0,0,0,0,0,0,0,0,0,0,0,0,0,0,0,0,0,0,0,0,0],"id":18,"left_children":[1,-1,3,5,7,9,11,13,15,17,19,21,23,25,-1,27,29,31,33,35,37,39,41,43,-1,45,47,49,51,53,-1,-1,-1,-1,-1,-1,-1,-1,-1,-1,-1,-1,-1,-1,-1,-1,-1,-1,-1,-1,-1,-1,-1,-1,-1],"loss_changes":[1.6245598E5,0E0,1.0738887E4,1.3140141E4,6.401953E1,2.108981E3,7.694414E2,1.2498047E1,1.6445312E0,2.3847402E3,4.9854248E1,7.8853125E2,1.078125E0,9.4592285E0,0E0,9.1796875E-1,3.993225E0,7.8313E2,1.5695117E2,2.9731567E1,6.9873047E-1,1.4115274E2,7.518994E1,7.995679E1,0E0,6.702205E1,6.852539E0,6.4453125E-1,1.640625E-1,7.9927826E-1,0E0,0E0,0E0,0E0,0E0,0E0,0E0,0E0,0E0,0E0,0E0,0E0,0E0,0E0,0E0,0E0,0E0,0E0,0E0,0E0,0E0,0E0,0E0,0E0,0E0],"parents":[2147483647,0,0,2,2,3,3,4,4,5,5,6,6,7,7,8,8,9,9,10,10,11,11,12,12,13,13,15,15,16,16,17,17,18,18,19,19,20,20,21,21,22,22,23,23,25,25,26,26,27,27,28,28,29,29],"right_children":[2,-1,4,6,8,10,12,14,16,18,20,22,24,26,-1,28,30,32,34,36,38,40,42,44,-1,46,48,50,52,54,-1,-1,-1,-1,-1,-1,-1,-1,-1,-1,-1,-1,-1,-1,-1,-1,-1,-1,-1,-1,-1,-1,-1,-1,-1],"split_conditions":[5E-1,-1.0870423E-1,7.5E-1,4.9535E1,8E-1,1.2183546E2,5.277298E0,7.503371E1,9.782609E-1,1.9083427E0,5.1284184E0,2.092047E0,9.7461E1,-5.3935665E1,1.0649159E-1,9.0909094E-1,7.493467E1,1.00392E1,2.335215E0,1.3E1,1.362475E2,5.1284184E0,2.335215E0,1.068144E2,1.0811994E-1,3.285038E0,3E0,4.1E1,8.564171E-1,1.6E1,2.6373154E-2,-5.943768E-2,5.347381E-3,6.5395236E-2,1.0633445E-1,5.937412E-2,8.6843714E-2,8.738395E-2,1.07804E-1,1.8842753E-2,6.410458E-2,7.235006E-2,1.0558944E-1,-3.8346562E-1,1.0510224E-1,-3.0060795E-1,7.6541744E-2,-8.520196E-2,8.554663E-2,1.0224036E-1,6.288254E-2,1.0014284E-1,1.01276375E-1,6.594841E-2,9.680801E-2],"split_indices":[8,0,8,7,8,4,0,7,8,6,0,6,7,7,0,8,4,4,6,3,4,0,6,4,0,0,3,3,6,3,0,0,0,0,0,0,0,0,0,0,0,0,0,0,0,0,0,0,0,0,0,0,0,0,0],"split_type":[0,0,0,0,0,0,0,0,0,0,0,0,0,0,0,0,0,0,0,0,0,0,0,0,0,0,0,0,0,0,0,0,0,0,0,0,0,0,0,0,0,0,0,0,0,0,0,0,0,0,0,0,0,0,0],"sum_hessian":[2.234859E5,8.509026E4,1.3839566E5,8.174255E4,5.6653105E4,5.3027707E4,2.8714844E4,3.297226E3,5.335588E4,4.9525777E4,3.5019287E3,7.4338447E3,2.1281E4,2.9917559E3,3.0547028E2,5.3225754E4,1.3012515E2,4.5762344E4,3.7634312E3,2.4128738E3,1.089055E3,3.2041592E3,4.229685E3,1.4118915E3,1.9869107E4,5.334236E1,2.9384133E3,1.4145063E4,3.908069E4,1.1910505E2,1.1020099E1,1.9478763E3,4.381447E4,1.9274891E3,1.8359419E3,5.097383E2,1.9031354E3,4.516017E1,1.0438949E3,2.2013154E3,1.00284393E3,8.660097E2,3.3636755E3,2.4031646E0,1.4094883E3,4.2153563E0,4.9127003E1,1.6029571E0,2.9368105E3,1.4135145E4,9.919318E0,1.4771976E4,2.4308717E4,1.9844654E1,9.926039E1],"tree_param":{"num_deleted":"0","num_feature":"9","num_nodes":"55","size_leaf_vector":"1"}},{"base_weights":[1.4121496E-3,-1.1921733E-1,1.0124099E0,-1.4808415E-1,9.744914E-1,4.9749005E-1,1.0538373E0,-1.6162954E-1,5.705809E-1,-1.4464371E-1,9.8076826E-1,9.200966E-1,3.7111807E-1,9.838164E-1,1.0612909E0,-1.7760448E-1,9.253319E-2,2.9153115E-1,6.91301E-1,9.827297E-1,-1.9470014E-1,1.3467695E-2,9.97426E-1,9.726412E-1,2.1855564E-1,1.0381702E0,-5.2972186E-1,1.0360616E0,1.07723765E-1,-2.088189E-1,-1.2139123E-1,3.7888896E-2,3.0743486E-1,-8.9856766E-2,5.6615376E-1,5.59742E-1,7.755546E-1,9.994075E-1,7.694232E-1,3.9804757E-1,-1.4070636E-1,1.05483435E-1,8.8021344E-1,1.0446238E-1,7.926054E-1,-3.8986963E-1,3.21597E-1,4.3065098E-1,1.056839E0,-1.7265809E0,-1.8579865E-1,3.9418462E-1,1.0463003E0,-4.576653E-2,-2.0008259E-2,-4.7371546E-3,-1.6097305E-2,1.0908744E-2,-1.1935059E-2,-1.1125396E-2,3.5996072E-2,4.3297097E-2,-5.985881E-2,6.0605366E-2,-1.4909886E-1,5.928594E-2,-1.9640267E-1,-1.9431321E-1,7.823666E-2,2.591519E-2,1.0034925E-1,-2.3323189E-1,7.954698E-2,5.94227E-2,-1.2485955E-1,6.060806E-2,1.0517006E-1,-9.622937E-2,8.281886E-2,-1.1662825E-1,3.9811194E-2,3.482313E-2,-1.9933818E-1,-2.1953609E-2,7.198144E-2,9.612228E-2,1.0742941E-1,-6.6541575E-2,-1.802038E-1,-1.5977855E-1,1.5891155E-2,-1.6988981E-1,6.261679E-2,8.3053604E-2,1.0523039E-1],"categories":[],"categories_nodes":[],"categories_segments":[],"categories_sizes":[],"default_left":[0,0,0,0,0,0,0,0,0,0,0,0,0,0,0,0,0,0,0,0,0,0,0,0,0,0,0,0,0,0,0,0,0,0,0,0,0,0,0,0,0,0,0,0,0,0,0,0,0,0,0,0,0,0,0,0,0,0,0,0,0,0,0,0,0,0,0,0,0,0,0,0,0,0,0,0,0,0,0,0,0,0,0,0,0,0,0,0,0,0,0,0,0,0,0],"id":19,"left_children":[1,3,5,7,9,11,13,15,17,-1,19,21,23,25,27,29,31,33,35,37,-1,39,41,43,45,47,49,51,-1,53,55,57,59,61,63,65,67,69,71,73,-1,-1,75,-1,77,79,81,83,85,87,89,91,93,-1,-1,-1,-1,-1,-1,-1,-1,-1,-1,-1,-1,-1,-1,-1,-1,-1,-1,-1,-1,-1,-1,-1,-1,-1,-1,-1,-1,-1,-1,-1,-1,-1,-1,-1,-1,-1,-1,-1,-1,-1,-1],"loss_changes":[2.5467133E4,5.890259E3,4.743203E2,1.7695068E3,7.432129E1,8.828235E1,9.708984E0,7.2437646E2,1.1307947E2,0E0,2.9395996E1,2.6720581E1,1.17172714E2,1.6472998E2,6.3710938E0,2.9450244E2,1.2388784E2,1.06589584E2,2.5575928E1,1.6247559E1,0E0,1.7485601E1,1.4356384E0,2.5219727E0,6.417447E1,2.1398682E1,2.8430172E1,4.7118164E1,0E0,2.3453418E2,1.7558173E2,9.41984E1,4.7076324E1,1.1374877E2,4.9454483E1,7.803323E1,2.7963867E1,1.3145508E1,3.0229279E1,8.869731E0,0E0,0E0,5.0765305E0,0E0,5.666275E0,9.126407E1,5.459648E1,1.1275851E1,2.0864258E0,3.963089E-2,2.7207268E1,5.697931E1,8.345703E0,0E0,0E0,0E0,0E0,0E0,0E0,0E0,0E0,0E0,0E0,0E0,0E0,0E0,0E0,0E0,0E0,0E0,0E0,0E0,0E0,0E0,0E0,0E0,0E0,0E0,0E0,0E0,0E0,0E0,0E0,0E0,0E0,0E0,0E0,0E0,0E0,0E0,0E0,0E0,0E0,0E0,0E0],"parents":[2147483647,0,0,1,1,2,2,3,3,4,4,5,5,6,6,7,7,8,8,10,10,11,11,12,12,13,13,14,14,15,15,16,16,17,17,18,18,19,19,21,21,22,22,23,23,24,24,25,25,26,26,27,27,29,29,30,30,31,31,32,32,33,33,34,34,35,35,36,36,37,37,38,38,39,39,42,42,44,44,45,45,46,46,47,47,48,48,49,49,50,50,51,51,52,52],"right_children":[2,4,6,8,10,12,14,16,18,-1,20,22,24,26,28,30,32,34,36,38,-1,40,42,44,46,48,50,52,-1,54,56,58,60,62,64,66,68,70,72,74,-1,-1,76,-1,78,80,82,84,86,88,90,92,94,-1,-1,-1,-1,-1,-1,-1,-1,-1,-1,-1,-1,-1,-1,-1,-1,-1,-1,-1,-1,-1,-1,-1,-1,-1,-1,-1,-1,-1,-1,-1,-1,-1,-1,-1,-1,-1,-1,-1,-1,-1,-1],"split_conditions":[5.18257E0,2.335215E0,5.277298E0,1.2183546E2,2.9841657E0,1.4823834E0,9.7461E1,1.764594E0,1.3E1,-1.4464371E-1,7.191E1,7E0,7.532E1,1.764594E0,1.0970118E2,4.812E0,2.092047E0,1.362475E2,4.4398236E0,5.4984165E1,-1.9470014E-1,4E0,4.6166874E1,6.699116E1,1.7133188E0,1.2183546E2,1E1,2.030558E0,1.07723765E-1,5E0,4.6731E1,2.3E1,3.5762706E0,2E0,1.0535714E1,4.3893747E0,2E0,1.3376819E1,5.5726665E1,1.3800057E0,-1.4070636E-1,1.05483435E-1,2.3E1,1.0446238E-1,6.9682594E1,2.3E1,2.1E1,2E1,1.362475E2,1.02615715E2,1.068144E2,1.0351769E2,2.092047E0,-4.576653E-2,-2.0008259E-2,-4.7371546E-3,-1.6097305E-2,1.0908744E-2,-1.1935059E-2,-1.1125396E-2,3.5996072E-2,4.3297097E-2,-5.985881E-2,6.0605366E-2,-1.4909886E-1,5.928594E-2,-1.9640267E-1,-1.9431321E-1,7.823666E-2,2.591519E-2,1.0034925E-1,-2.3323189E-1,7.954698E-2,5.94227E-2,-1.2485955E-1,6.060806E-2,1.0517006E-1,-9.622937E-2,8.281886E-2,-1.1662825E-1,3.9811194E-2,3.482313E-2,-1.9933818E-1,-2.1953609E-2,7.198144E-2,9.612228E-2,1.0742941E-1,-6.6541575E-2,-1.802038E-1,-1.5977855E-1,1.5891155E-2,-1.6988981E-1,6.261679E-2,8.3053604E-2,1.0523039E-1],"split_indices":[0,6,0,4,0,6,7,6,3,0,4,3,4,6,4,7,6,4,0,4,0,2,7,4,6,4,1,6,0,3,4,3,0,2,7,0,1,7,4,6,0,0,3,0,4,3,1,3,4,4,4,4,6,0,0,0,0,0,0,0,0,0,0,0,0,0,0,0,0,0,0,0,0,0,0,0,0,0,0,0,0,0,0,0,0,0,0,0,0,0,0,0,0,0,0],"split_type":[0,0,0,0,0,0,0,0,0,0,0,0,0,0,0,0,0,0,0,0,0,0,0,0,0,0,0,0,0,0,0,0,0,0,0,0,0,0,0,0,0,0,0,0,0,0,0,0,0,0,0,0,0,0,0,0,0,0,0,0,0,0,0,0,0,0,0,0,0,0,0,0,0,0,0,0,0,0,0,0,0,0,0,0,0,0,0,0,0,0,0,0,0,0,0],"sum_hessian":[2.0882008E5,1.86561E5,2.2259064E4,1.8176447E5,4.7965386E3,1.6584474E3,2.0600617E4,1.784027E5,3.3617585E3,1.1810707E1,4.7847275E3,3.803201E2,1.2781273E3,1.9947108E3,1.8605906E4,1.6785292E5,1.0549788E4,1.0161949E3,2.3455635E3,4.7821885E3,2.5394313E0,2.9981665E1,3.503384E2,2.5749612E2,1.0206312E3,1.9258638E3,6.8847046E1,7.231287E3,1.1374619E4,1.07922414E5,5.9930508E4,8.411997E3,2.1377913E3,4.2568652E2,5.905083E2,9.18696E2,1.4268676E3,4.4319805E3,3.502079E2,2.4160492E1,5.8211713E0,2.2979161E2,1.2054681E2,1.8051843E2,7.697769E1,1.4741435E2,8.7321686E2,5.8134132E1,1.8677297E3,1.4470207E1,5.4376835E1,1.1415676E2,7.11713E3,3.658615E3,1.042638E5,2.0882162E4,3.9048344E4,5.7903936E3,2.6216028E3,2.3817293E2,1.8996182E3,2.1000818E2,2.1567836E2,5.7996484E2,1.0543484E1,9.07552E2,1.1144002E1,2.8558E0,1.4240117E3,2.4676971E1,4.407303E3,2.1789966E0,3.4802887E2,2.2159554E1,2.000939E0,4.8134727E1,7.241208E1,1.0122439E0,7.5965454E1,7.4010414E1,7.340393E1,8.641245E2,9.092354E0,1.7969748E1,4.0164383E1,2.9698233E2,1.5707473E3,1.6124551E0,1.2857752E1,9.956853E0,4.4419983E1,1.0759067E1,1.033977E2,1.964427E2,6.9206875E3],"tree_param":{"num_deleted":"0","num_feature":"9","num_nodes":"95","size_leaf_vector":"1"}},{"base_weights":[1.0892857E-4,-1.07681446E-1,6.371454E-1,3.9552882E-1,9.8898095E-1,1.4735961E-1,9.8617244E-1,8.350719E-1,9.9819076E-1,3.731096E-2,8.899053E-1,8.188852E-1,1.0587541E0,8.189553E-1,1.04161695E-1,1.0086441E0,9.9437433E-1,-2.357616E-2,3.4319118E-1,7.581432E-1,1.0362277E0,6.026884E-1,1.029892E0,1.0391096E0,1.0673175E-1,3.6437646E-1,8.2378316E-1,8.9318794E-1,1.0097586E0,9.947589E-2,8.767381E-1,2.2299418E-2,-1.0516859E-2,2.9337166E-2,6.960363E-2,5.064417E-2,8.936076E-2,8.287887E-2,1.0609293E-1,-4.0114596E-2,6.2015243E-2,-2.3038964E-1,1.03328206E-1,4.1156568E-2,1.05009794E-1,-2.0454542E-1,7.384357E-2,-7.1081415E-2,8.2467765E-2,3.4516104E-2,9.748741E-2,1.01000465E-1,6.0989548E-2,9.3524896E-2,1.681241E-2],"categories":[],"categories_nodes":[],"categories_segments":[],"categories_sizes":[],"default_left":[0,0,0,0,0,0,0,0,0,0,0,0,0,0,0,0,0,0,0,0,0,0,0,0,0,0,0,0,0,0,0,0,0,0,0,0,0,0,0,0,0,0,0,0,0,0,0,0,0,0,0,0,0,0,0],"id":20,"left_children":[1,-1,3,5,7,9,11,13,15,17,19,21,23,25,-1,27,29,31,33,35,37,39,41,43,-1,45,47,49,51,-1,53,-1,-1,-1,-1,-1,-1,-1,-1,-1,-1,-1,-1,-1,-1,-1,-1,-1,-1,-1,-1,-1,-1,-1,-1],"loss_changes":[1.4128419E5,0E0,1.0999672E4,1.1245011E4,7.383984E1,4.4143486E3,2.7472266E2,9.069092E0,9.765625E-1,8.7626044E2,1.3364648E2,3.128877E2,1.5546875E0,5.777832E0,0E0,7.998047E-1,7.8125E-1,7.894543E2,1.3709717E2,1.2477124E2,1.6035645E1,5.9798462E1,4.166992E1,3.2958008E1,0E0,2.9362312E1,4.346924E0,5.710747E0,6.7089844E-1,0E0,5.120987E0,0E0,0E0,0E0,0E0,0E0,0E0,0E0,0E0,0E0,0E0,0E0,0E0,0E0,0E0,0E0,0E0,0E0,0E0,0E0,0E0,0E0,0E0,0E0,0E0],"parents":[2147483647,0,0,2,2,3,3,4,4,5,5,6,6,7,7,8,8,9,9,10,10,11,11,12,12,13,13,15,15,16,16,17,17,18,18,19,19,20,20,21,21,22,22,23,23,25,25,26,26,27,27,28,28,30,30],"right_children":[2,-1,4,6,8,10,12,14,16,18,20,22,24,26,-1,28,30,32,34,36,38,40,42,44,-1,46,48,50,52,-1,54,-1,-1,-1,-1,-1,-1,-1,-1,-1,-1,-1,-1,-1,-1,-1,-1,-1,-1,-1,-1,-1,-1,-1,-1],"split_conditions":[1E0,-1.07681446E-1,3E0,1.9083427E0,4E0,1.1369937E2,9.7461E1,8.3003334E1,1E1,2E0,4.6166874E1,2.335215E0,9.871259E1,-6.1607857E1,1.04161695E-1,4E0,4.5E1,1.3E1,3.2431904E1,1.362475E2,1.2183546E2,8.432353E0,1.174E1,2.1803997E0,1.0673175E-1,1.0351769E2,3E0,9E0,4.1E1,9.947589E-2,1.594647E1,2.2299418E-2,-1.0516859E-2,2.9337166E-2,6.960363E-2,5.064417E-2,8.936076E-2,8.287887E-2,1.0609293E-1,-4.0114596E-2,6.2015243E-2,-2.3038964E-1,1.03328206E-1,4.1156568E-2,1.05009794E-1,-2.0454542E-1,7.384357E-2,-7.1081415E-2,8.2467765E-2,3.4516104E-2,9.748741E-2,1.01000465E-1,6.0989548E-2,9.3524896E-2,1.681241E-2],"split_indices":[5,0,5,6,5,4,7,7,5,5,7,6,4,7,0,3,5,3,7,4,4,4,7,6,0,4,3,1,3,0,7,0,0,0,0,0,0,0,0,0,0,0,0,0,0,0,0,0,0,0,0,0,0,0,0],"split_type":[0,0,0,0,0,0,0,0,0,0,0,0,0,0,0,0,0,0,0,0,0,0,0,0,0,0,0,0,0,0,0,0,0,0,0,0,0,0,0,0,0,0,0,0,0,0,0,0,0,0,0,0,0,0,0],"sum_hessian":[2.059398E5,7.654248E4,1.2939732E5,7.6716086E4,5.2681234E4,5.401992E4,2.2696164E4,2.9795828E3,4.9701652E4,4.704821E4,6.971709E3,6.871322E3,1.5824842E4,2.7685205E3,2.1106206E2,1.32221875E4,3.6479465E4,3.9238496E4,7.8097134E3,3.671625E3,3.3000842E3,3.395826E3,3.4754958E3,4.841284E3,1.0983558E4,2.9897799E1,2.7386228E3,1.3408487E2,1.3088103E4,3.635316E4,1.2630362E2,9.755594E3,2.9482904E4,6.8450645E3,9.646492E2,1.2863124E3,2.3853125E3,3.5483206E2,2.9452522E3,5.7692307E1,3.3381335E3,2.8411288E0,3.4726548E3,8.3974E1,4.7573105E3,3.4168565E0,2.6480942E1,1.1330204E0,2.7374897E3,1.8071287E1,1.1601358E2,1.307853E4,9.5726795E0,1.16374626E2,9.928988E0],"tree_param":{"num_deleted":"0","num_feature":"9","num_nodes":"55","size_leaf_vector":"1"}},{"base_weights":[4.7853882E-3,-1.0689707E-1,6.119344E-1,3.7794206E-1,9.7285306E-1,1.6382614E-1,1.0218613E0,8.1203216E-1,9.827751E-1,2.2931043E-2,3.4691125E-1,7.3948735E-1,1.0525106E0,7.947224E-1,1.03626885E-1,9.8295146E-1,6.687426E-1,-6.371745E-2,5.5107E-1,5.6503725E-1,5.4858457E-2,1.0315992E0,6.6860455E-1,1.0410057E0,1.0629987E-1,5.472498E-1,8.0680466E-1,9.9409646E-1,9.7887796E-1,9.285627E-2,1.332582E-2,2.0800738E-3,-5.5904813E-2,4.4709846E-2,8.038418E-2,4.787996E-2,9.517176E-2,-9.784153E-2,8.314232E-3,1.0640603E-1,9.112448E-2,5.6369226E-2,9.5187984E-2,9.984231E-3,1.0484352E-1,-5.559354E-1,6.8717614E-2,7.706179E-2,8.522035E-2,8.887006E-2,9.950325E-2,9.717009E-2,9.842504E-2],"categories":[],"categories_nodes":[],"categories_segments":[],"categories_sizes":[],"default_left":[0,0,0,0,0,0,0,0,0,0,0,0,0,0,0,0,0,0,0,0,0,0,0,0,0,0,0,0,0,0,0,0,0,0,0,0,0,0,0,0,0,0,0,0,0,0,0,0,0,0,0,0,0],"id":21,"left_children":[1,-1,3,5,7,9,11,13,15,17,19,21,23,25,-1,27,29,31,33,35,37,39,41,43,-1,45,47,49,51,-1,-1,-1,-1,-1,-1,-1,-1,-1,-1,-1,-1,-1,-1,-1,-1,-1,-1,-1,-1,-1,-1,-1,-1],"loss_changes":[1.2581975E5,0E0,1.0411324E4,1.0312179E4,7.657422E1,1.4479686E3,1.607539E2,1.0135986E1,1.875E0,1.4517153E3,1.5550657E3,3.721991E1,9.2578125E-1,7.4088135E0,0E0,1.1015625E0,3.877943E0,1.140904E3,1.1714429E2,4.6553125E2,3.0513345E2,4.199524E-1,4.3334656E1,5.636914E1,0E0,1.1090817E2,3.4523926E0,3.1347656E-1,3.3398438E-1,0E0,0E0,0E0,0E0,0E0,0E0,0E0,0E0,0E0,0E0,0E0,0E0,0E0,0E0,0E0,0E0,0E0,0E0,0E0,0E0,0E0,0E0,0E0,0E0],"parents":[2147483647,0,0,2,2,3,3,4,4,5,5,6,6,7,7,8,8,9,9,10,10,11,11,12,12,13,13,15,15,16,16,17,17,18,18,19,19,20,20,21,21,22,22,23,23,25,25,26,26,27,27,28,28],"right_children":[2,-1,4,6,8,10,12,14,16,18,20,22,24,26,-1,28,30,32,34,36,38,40,42,44,-1,46,48,50,52,-1,-1,-1,-1,-1,-1,-1,-1,-1,-1,-1,-1,-1,-1,-1,-1,-1,-1,-1,-1,-1,-1,-1,-1],"split_conditions":[1E0,-1.0689707E-1,3E0,5.1284184E0,4E0,7.8440742E0,5.277298E0,8.3003334E1,4.8E1,9.613538E1,5.610625E1,7.191E1,1.2183546E2,8E0,1.03626885E-1,1E1,3.1501687E0,7.493467E1,4.6415987E0,4.7797E1,4.331391E0,6.265875E1,1.2183546E2,9.7461E1,1.0629987E-1,2E0,2.3E1,4E0,-2.6566668E0,9.285627E-2,1.332582E-2,2.0800738E-3,-5.5904813E-2,4.4709846E-2,8.038418E-2,4.787996E-2,9.517176E-2,-9.784153E-2,8.314232E-3,1.0640603E-1,9.112448E-2,5.6369226E-2,9.5187984E-2,9.984231E-3,1.0484352E-1,-5.559354E-1,6.8717614E-2,7.706179E-2,8.522035E-2,8.887006E-2,9.950325E-2,9.717009E-2,9.842504E-2],"split_indices":[5,0,5,0,5,7,0,7,5,4,4,4,4,3,0,5,0,4,0,7,0,4,4,7,0,2,3,3,7,0,0,0,0,0,0,0,0,0,0,0,0,0,0,0,0,0,0,0,0,0,0,0,0],"split_type":[0,0,0,0,0,0,0,0,0,0,0,0,0,0,0,0,0,0,0,0,0,0,0,0,0,0,0,0,0,0,0,0,0,0,0,0,0,0,0,0,0,0,0,0,0,0,0,0,0,0,0,0,0],"sum_hessian":[1.9299381E5,6.970979E4,1.2328402E5,7.479478E4,4.848924E4,5.6131273E4,1.8663508E4,2.8225684E3,4.566667E4,3.1721094E4,2.441018E4,1.829877E3,1.683363E4,2.6245151E3,1.9805333E2,4.563891E4,2.776226E1,2.725106E4,4.4700337E3,1.3973118E4,1.04370625E4,3.5467764E2,1.4751992E3,8.0755117E3,8.758119E3,1.2432603E2,2.5001892E3,1.2150971E4,3.3487938E4,1.8198286E1,9.563974E0,2.3279791E4,3.9712686E3,3.1692207E3,1.3008129E3,1.1426919E4,2.5461987E3,2.7718732E2,1.0159875E4,2.7316135E2,8.151631E1,1.0786909E3,3.9650827E2,6.336147E1,8.0121504E3,1.9173936E0,1.2240864E2,1.4012467E3,1.0989424E3,1.1532996E2,1.2035641E4,1.4414007E4,1.9073932E4],"tree_param":{"num_deleted":"0","num_feature":"9","num_nodes":"53","size_leaf_vector":"1"}},{"base_weights":[-2.3013582E-3,-1.0619751E-1,5.742464E-1,3.3630005E-1,9.570332E-1,1.2839316E-1,1.0102272E0,7.9030895E-1,9.674095E-1,5.7207912E-2,9.1429985E-1,6.945888E-1,1.044911E0,-2.5577492E-1,7.9383636E-1,9.675009E-1,5.059905E-2,1.2801347E-4,3.4907618E-1,6.500136E-1,1.0120329E0,6.0475665E-1,9.825409E-2,1.034021E-1,1.0545366E-1,7.7554417E-1,1.0238627E-1,9.7998613E-1,9.6398866E-1,1.6914086E-2,-8.123406E-3,3.519569E-2,-3.9333716E-1,-2.0840581E-1,6.622767E-2,-2.1837555E-1,1.01587415E-1,9.30674E-2,4.4474497E-2,7.839036E-2,2.083095E-2,9.143351E-2,9.821526E-2,9.6415035E-2,7.134304E-2],"categories":[],"categories_nodes":[],"categories_segments":[],"categories_sizes":[],"default_left":[0,0,0,0,0,0,0,0,0,0,0,0,0,0,0,0,0,0,0,0,0,0,0,0,0,0,0,0,0,0,0,0,0,0,0,0,0,0,0,0,0,0,0,0,0],"id":22,"left_children":[1,-1,3,5,7,9,11,13,15,17,19,21,23,-1,25,27,-1,29,31,33,35,37,-1,-1,-1,39,-1,41,43,-1,-1,-1,-1,-1,-1,-1,-1,-1,-1,-1,-1,-1,-1,-1,-1],"loss_changes":[1.1011055E5,0E0,1.0631008E4,1.0085306E4,7.663672E1,3.0775247E3,1.8505664E2,3.305432E1,1.2890625E0,8.403704E2,1.17352295E2,4.2944214E1,5.136719E-1,0E0,1.0250732E1,8.984375E-1,0E0,5.802151E2,1.0317615E2,4.282843E1,4.3141113E1,6.662628E1,0E0,0E0,0E0,1.138623E1,0E0,4.0820312E-1,6.484375E-1,0E0,0E0,0E0,0E0,0E0,0E0,0E0,0E0,0E0,0E0,0E0,0E0,0E0,0E0,0E0,0E0],"parents":[2147483647,0,0,2,2,3,3,4,4,5,5,6,6,7,7,8,8,9,9,10,10,11,11,12,12,14,14,15,15,17,17,18,18,19,19,20,20,21,21,25,25,27,27,28,28],"right_children":[2,-1,4,6,8,10,12,14,16,18,20,22,24,-1,26,28,-1,30,32,34,36,38,-1,-1,-1,40,-1,42,44,-1,-1,-1,-1,-1,-1,-1,-1,-1,-1,-1,-1,-1,-1,-1,-1],"split_conditions":[1E0,-1.0619751E-1,3E0,5.1284184E0,4E0,2.092047E0,5.277298E0,-7.5068825E1,5.3E1,2E0,2.335215E0,2.335215E0,2.335215E0,-2.5577492E-1,8.3003334E1,9E0,5.059905E-2,1.5E1,3.8E1,8.604348E0,1.174E1,1.4996527E0,9.825409E-2,1.034021E-1,1.0545366E-1,1.8276069E0,1.0238627E-1,6E0,4.2E1,1.6914086E-2,-8.123406E-3,3.519569E-2,-3.9333716E-1,-2.0840581E-1,6.622767E-2,-2.1837555E-1,1.01587415E-1,9.30674E-2,4.4474497E-2,7.839036E-2,2.083095E-2,9.143351E-2,9.821526E-2,9.6415035E-2,7.134304E-2],"split_indices":[5,0,5,0,5,6,0,7,5,5,6,6,6,0,7,5,0,3,3,7,7,6,0,0,0,6,0,3,3,0,0,0,0,0,0,0,0,0,0,0,0,0,0,0,0],"split_type":[0,0,0,0,0,0,0,0,0,0,0,0,0,0,0,0,0,0,0,0,0,0,0,0,0,0,0,0,0,0,0,0,0,0,0,0,0,0,0,0,0,0,0,0,0],"sum_hessian":[1.8022566E5,6.3504977E4,1.1672068E5,7.1979164E4,4.4741516E4,5.50098E4,1.6969361E4,2.6259202E3,4.2115594E4,5.044198E4,4.567822E3,1.6821396E3,1.5287222E4,2.0015898E0,2.6239187E3,4.2106152E4,9.441535E0,4.2191668E4,8.250312E3,1.235224E3,3.332598E3,1.284512E3,3.9762772E2,7.2233984E3,8.0638228E3,2.4346797E3,1.8923906E2,9.183531E3,3.292262E4,1.3710295E4,2.8481373E4,8.245683E3,4.628854E0,4.761193E0,1.2304629E3,3.319579E0,3.3292783E3,4.2139133E2,8.6312067E2,2.398944E3,3.573546E1,3.068905E2,8.876641E3,3.289854E4,2.4080236E1],"tree_param":{"num_deleted":"0","num_feature":"9","num_nodes":"45","size_leaf_vector":"1"}},{"base_weights":[2.8163262E-3,-1.0557278E-1,5.5124813E-1,3.235177E-1,9.412586E-1,1.306575E-1,9.811443E-1,7.6635545E-1,9.524711E-1,9.0396136E-2,8.7638956E-1,7.023708E-1,1.0360183E0,7.459162E-1,1.0165369E-1,9.528954E-1,7.851954E-1,4.6317793E-2,8.007225E-1,6.29383E-1,9.9722177E-1,1.022331E0,5.801482E-1,1.0087194E0,1.0477135E-1,1.3186558E-1,7.5073874E-1,9.664731E-1,9.4898784E-1,8.5321194E-1,4.0223803E-3,-1.2126026E-1,5.834824E-3,5.53783E-2,8.887763E-2,-1.8426251E-1,6.4322166E-2,-2.6677132E-1,1.00630246E-1,1.0515652E-1,9.656464E-2,4.0396836E-2,1.038167E-1,3.8480114E-2,1.0229994E-1,8.807313E-2,-2.6820466E-1,7.274906E-2,8.6127065E-2,9.643673E-2,1.0320058E-1,9.52289E-2,9.373267E-2,4.1124012E-2,8.9004055E-2],"categories":[],"categories_nodes":[],"categories_segments":[],"categories_sizes":[],"default_left":[0,0,0,0,0,0,0,0,0,0,0,0,0,0,0,0,0,0,0,0,0,0,0,0,0,0,0,0,0,0,0,0,0,0,0,0,0,0,0,0,0,0,0,0,0,0,0,0,0,0,0,0,0,0,0],"id":23,"left_children":[1,-1,3,5,7,9,11,13,15,17,19,21,23,25,-1,27,29,31,33,35,37,39,41,43,-1,45,47,49,51,53,-1,-1,-1,-1,-1,-1,-1,-1,-1,-1,-1,-1,-1,-1,-1,-1,-1,-1,-1,-1,-1,-1,-1,-1,-1],"loss_changes":[9.830109E4,0E0,9.906277E3,8.931439E3,7.990234E1,1.6348458E3,2.4355469E2,1.1934937E1,1.9960938E0,1.6176074E3,8.261963E1,1.0223584E2,3.203125E0,6.7077637E0,0E0,1.125E0,5.2069016E0,7.368594E2,6.514502E1,3.262137E1,6.496057E1,1.8676758E-1,1.5330011E2,3.549414E1,0E0,4.266208E1,5.2331543E0,1.8652344E-1,2.6171875E-1,1.1759796E0,0E0,0E0,0E0,0E0,0E0,0E0,0E0,0E0,0E0,0E0,0E0,0E0,0E0,0E0,0E0,0E0,0E0,0E0,0E0,0E0,0E0,0E0,0E0,0E0,0E0],"parents":[2147483647,0,0,2,2,3,3,4,4,5,5,6,6,7,7,8,8,9,9,10,10,11,11,12,12,13,13,15,15,16,16,17,17,18,18,19,19,20,20,21,21,22,22,23,23,25,25,26,26,27,27,28,28,29,29],"right_children":[2,-1,4,6,8,10,12,14,16,18,20,22,24,26,-1,28,30,32,34,36,38,40,42,44,-1,46,48,50,52,54,-1,-1,-1,-1,-1,-1,-1,-1,-1,-1,-1,-1,-1,-1,-1,-1,-1,-1,-1,-1,-1,-1,-1,-1,-1],"split_conditions":[1E0,-1.0557278E-1,3E0,6.939231E1,4E0,2.092047E0,9.7461E1,8.3003334E1,4.5E1,1.2183546E2,2.335215E0,5.4984165E1,1.00935555E2,-6.1607857E1,1.0165369E-1,9E0,7.493467E1,6.7255554E0,5.826168E-1,8.604348E0,1.3376819E1,4.1094643E1,1.2183546E2,2.1803997E0,1.0477135E-1,1E1,6E0,6.16236E1,1.3230206E0,1E0,4.0223803E-3,-1.2126026E-1,5.834824E-3,5.53783E-2,8.887763E-2,-1.8426251E-1,6.4322166E-2,-2.6677132E-1,1.00630246E-1,1.0515652E-1,9.656464E-2,4.0396836E-2,1.038167E-1,3.8480114E-2,1.0229994E-1,8.807313E-2,-2.6820466E-1,7.274906E-2,8.6127065E-2,9.643673E-2,1.0320058E-1,9.52289E-2,9.373267E-2,4.1124012E-2,8.9004055E-2],"split_indices":[5,0,5,7,5,6,7,7,5,4,6,4,4,7,0,5,4,4,6,7,7,4,4,6,0,3,2,7,6,2,0,0,0,0,0,0,0,0,0,0,0,0,0,0,0,0,0,0,0,0,0,0,0,0,0],"split_type":[0,0,0,0,0,0,0,0,0,0,0,0,0,0,0,0,0,0,0,0,0,0,0,0,0,0,0,0,0,0,0,0,0,0,0,0,0,0,0,0,0,0,0,0,0,0,0,0,0,0,0,0,0,0,0],"sum_hessian":[1.693252E5,5.7787305E4,1.1153789E5,7.042056E4,4.111733E4,5.4452605E4,1.5967955E4,2.481273E3,3.863606E4,5.1664414E4,2.7881912E3,2.6284668E3,1.3339489E4,2.2975496E3,1.8372331E2,3.853362E4,1.02437454E2,4.864677E4,3.0176445E3,9.1793896E2,1.8702521E3,7.2449207E2,1.9039746E3,4.0270178E3,9.312471E3,1.8124485E1,2.279425E3,8.556319E3,2.99773E4,9.3734146E1,8.703305E0,4.5953134E2,4.818724E4,7.951114E2,2.2225332E3,4.374458E0,9.135645E2,3.8989139E0,1.8663531E3,4.6640225E2,2.5808984E2,1.3764111E3,5.275634E2,9.073132E1,3.9362864E3,1.4857477E1,3.267008E0,1.8895728E3,3.8985242E2,8.305158E3,2.511608E2,2.3300549E4,6.676751E3,8.145699E0,8.558845E1],"tree_param":{"num_deleted":"0","num_feature":"9","num_nodes":"55","size_leaf_vector":"1"}},{"base_weights":[-6.7444407E-6,-1.0501412E-1,5.1973325E-1,2.9748893E-1,9.233204E-1,1.1895163E-1,9.897047E-1,7.361242E-1,9.3558234E-1,7.906685E-2,4.552368E-1,6.46319E-1,1.0307901E0,7.1506125E-1,1.025181E-1,9.5055825E-1,9.312877E-1,1.7125614E-1,-3.493392E-1,3.679173E-1,7.317018E-1,1.0004779E0,5.7146823E-1,1.0157936E-1,1.04501046E-1,7.450261E-1,5.9914213E-1,8.930322E-1,9.525064E-2,9.7255224E-1,9.300615E-1,-8.404418E-3,2.406013E-2,-4.524234E-2,1.6392734E-2,4.3931168E-2,-3.0763572E-2,5.788047E-2,8.847941E-2,1.0445305E-1,8.640645E-2,4.4409912E-2,9.074364E-2,7.003181E-2,8.0372415E-2,-6.239311E-1,6.298465E-2,7.368976E-2,9.1622844E-2,9.783413E-2,2.5565648E-2,9.3297355E-2,9.093671E-2],"categories":[],"categories_nodes":[],"categories_segments":[],"categories_sizes":[],"default_left":[0,0,0,0,0,0,0,0,0,0,0,0,0,0,0,0,0,0,0,0,0,0,0,0,0,0,0,0,0,0,0,0,0,0,0,0,0,0,0,0,0,0,0,0,0,0,0,0,0,0,0,0,0],"id":24,"left_children":[1,-1,3,5,7,9,11,13,15,17,19,21,23,25,-1,27,29,31,33,35,37,39,41,-1,-1,43,45,47,-1,49,51,-1,-1,-1,-1,-1,-1,-1,-1,-1,-1,-1,-1,-1,-1,-1,-1,-1,-1,-1,-1,-1,-1],"loss_changes":[8.664739E4,0E0,9.524889E3,8.463658E3,8.587109E1,7.3020154E2,1.974375E2,1.34104E1,1.3886719E0,1.922353E3,1.3908105E2,3.927716E1,1.6123047E0,7.0861816E0,0E0,2.7832031E-2,4.9023438E-1,7.091304E2,4.5612756E2,2.118128E2,3.1896423E1,6.6552734E-1,5.2799255E1,0E0,0E0,3.9483032E0,9.852873E1,3.1272888E-1,0E0,2.9587402E0,7.65625E-1,0E0,0E0,0E0,0E0,0E0,0E0,0E0,0E0,0E0,0E0,0E0,0E0,0E0,0E0,0E0,0E0,0E0,0E0,0E0,0E0,0E0,0E0],"parents":[2147483647,0,0,2,2,3,3,4,4,5,5,6,6,7,7,8,8,9,9,10,10,11,11,12,12,13,13,15,15,16,16,17,17,18,18,19,19,20,20,21,21,22,22,25,25,26,26,27,27,29,29,30,30],"right_children":[2,-1,4,6,8,10,12,14,16,18,20,22,24,26,-1,28,30,32,34,36,38,40,42,-1,-1,44,46,48,-1,50,52,-1,-1,-1,-1,-1,-1,-1,-1,-1,-1,-1,-1,-1,-1,-1,-1,-1,-1,-1,-1,-1,-1],"split_conditions":[1E0,-1.0501412E-1,3E0,5.1284184E0,4E0,9.802739E1,5.277298E0,5.18257E0,9E0,7.38E1,1.362475E2,7.191E1,1.2183546E2,7.6838264E1,1.025181E-1,6E0,2E0,2.9523027E0,2E0,6E0,4.6519585E0,6.265875E1,1.2183546E2,1.0157936E-1,1.04501046E-1,2.3E1,3E0,2.9841657E0,9.525064E-2,3.4E1,6E0,-8.404418E-3,2.406013E-2,-4.524234E-2,1.6392734E-2,4.3931168E-2,-3.0763572E-2,5.788047E-2,8.847941E-2,1.0445305E-1,8.640645E-2,4.4409912E-2,9.074364E-2,7.003181E-2,8.0372415E-2,-6.239311E-1,6.298465E-2,7.368976E-2,9.1622844E-2,9.783413E-2,2.5565648E-2,9.3297355E-2,9.093671E-2],"split_indices":[5,0,5,0,5,4,0,0,5,4,4,4,4,4,0,3,1,0,5,2,0,4,4,0,0,3,1,0,0,3,2,0,0,0,0,0,0,0,0,0,0,0,0,0,0,0,0,0,0,0,0,0,0],"split_type":[0,0,0,0,0,0,0,0,0,0,0,0,0,0,0,0,0,0,0,0,0,0,0,0,0,0,0,0,0,0,0,0,0,0,0,0,0,0,0,0,0,0,0,0,0,0,0,0,0,0,0,0,0],"sum_hessian":[1.5875189E5,5.2557816E4,1.0619407E5,6.848372E4,3.771036E4,5.4442895E4,1.4040819E4,2.3220378E3,3.538832E4,4.8671496E4,5.771402E3,1.5022162E3,1.2538603E4,2.1675657E3,1.544723E2,7.837548E3,2.7550773E4,4.0053027E4,8.618468E3,4.3878584E3,1.3835431E3,2.5993903E2,1.2422771E3,6.1380405E3,6.4005625E3,1.7180312E3,4.4953433E2,2.7177145E2,7.5657764E3,7.7220935E2,2.6778562E4,8.55539E3,3.1497637E4,7.1771333E3,1.4413339E3,3.9687766E3,4.190819E2,6.946045E2,6.889386E2,1.914547E2,6.848433E1,9.024649E2,3.3981226E2,9.8257294E2,7.354584E2,1.1055312E0,4.484288E2,3.939182E1,2.3237964E2,7.6566187E2,6.5475016E0,2.343661E4,3.3419543E3],"tree_param":{"num_deleted":"0","num_feature":"9","num_nodes":"53","size_leaf_vector":"1"}},{"base_weights":[-4.2609368E-3,-1.04513876E-1,4.8641822E-1,2.656129E-1,9.069869E-1,9.075239E-2,9.804374E-1,7.060842E-1,9.2038107E-1,3.0474657E-2,8.7317723E-1,6.34629E-1,1.0252886E0,6.8890816E-1,9.9523294E-1,9.204985E-1,3.7660852E-2,-1.112182E-2,3.37258E-1,5.741587E-1,9.8949414E-1,9.9080306E-1,5.6708133E-1,1.0092614E0,1.0400535E-1,2.7284467E-1,6.962178E-1,7.2668046E-1,1.0262697E-1,9.3541014E-1,9.161998E-1,5.6929695E-3,-3.7740808E-2,2.3606548E-2,5.951443E-2,-2.5887367E-1,5.9769362E-2,-1.504883E-1,9.921608E-2,1.0393788E-1,8.058014E-2,8.9532055E-2,4.2712077E-2,1.4468466E-2,1.0136714E-1,7.9930745E-2,-9.214318E-2,7.157969E-2,5.538205E-2,9.446368E-2,2.4473384E-2,8.037138E-2,9.377966E-2,9.177463E-2,8.731217E-2],"categories":[],"categories_nodes":[],"categories_segments":[],"categories_sizes":[],"default_left":[0,0,0,0,0,0,0,0,0,0,0,0,0,0,0,0,0,0,0,0,0,0,0,0,0,0,0,0,0,0,0,0,0,0,0,0,0,0,0,0,0,0,0,0,0,0,0,0,0,0,0,0,0,0,0],"id":25,"left_children":[1,-1,3,5,7,9,11,13,15,17,19,21,23,25,27,29,-1,31,33,35,37,39,41,43,-1,45,47,49,-1,51,53,-1,-1,-1,-1,-1,-1,-1,-1,-1,-1,-1,-1,-1,-1,-1,-1,-1,-1,-1,-1,-1,-1,-1,-1],"loss_changes":[7.611394E4,0E0,9.405217E3,8.301465E3,9.317578E1,2.5167222E3,2.0180566E2,1.015918E1,1.7402344E0,6.322788E2,1.3218994E2,3.5556458E1,1.6835938E0,6.088684E0,2.5602722E-1,1.2382812E0,0E0,1.0876099E3,1.542428E2,8.129657E1,1.9762695E1,1.3011322E0,5.7699097E1,2.1103516E1,0E0,2.4180862E1,5.2580566E0,1.4365997E0,0E0,1.5292969E0,8.90625E-1,0E0,0E0,0E0,0E0,0E0,0E0,0E0,0E0,0E0,0E0,0E0,0E0,0E0,0E0,0E0,0E0,0E0,0E0,0E0,0E0,0E0,0E0,0E0,0E0],"parents":[2147483647,0,0,2,2,3,3,4,4,5,5,6,6,7,7,8,8,9,9,10,10,11,11,12,12,13,13,14,14,15,15,17,17,18,18,19,19,20,20,21,21,22,22,23,23,25,25,26,26,27,27,29,29,30,30],"right_children":[2,-1,4,6,8,10,12,14,16,18,20,22,24,26,28,30,-1,32,34,36,38,40,42,44,-1,46,48,50,-1,52,54,-1,-1,-1,-1,-1,-1,-1,-1,-1,-1,-1,-1,-1,-1,-1,-1,-1,-1,-1,-1,-1,-1,-1,-1],"split_conditions":[1E0,-1.04513876E-1,3E0,5.1284184E0,4E0,2.092047E0,5.277298E0,5.18257E0,5.3E1,9.613538E1,2.335215E0,7.191E1,1.2183546E2,1.9141428E-1,1.056025E2,9E0,3.7660852E-2,7.645E1,1.2183546E2,2.9841657E0,3.0315819E0,6.265875E1,1.4996527E0,1.8050356E0,1.0400535E-1,8.692684E-2,2.8E1,6.699116E1,1.0262697E-1,5E0,3.3E1,5.6929695E-3,-3.7740808E-2,2.3606548E-2,5.951443E-2,-2.5887367E-1,5.9769362E-2,-1.504883E-1,9.921608E-2,1.0393788E-1,8.058014E-2,8.9532055E-2,4.2712077E-2,1.4468466E-2,1.0136714E-1,7.9930745E-2,-9.214318E-2,7.157969E-2,5.538205E-2,9.446368E-2,2.4473384E-2,8.037138E-2,9.377966E-2,9.177463E-2,8.731217E-2],"split_indices":[5,0,5,0,5,6,0,0,5,4,6,4,4,6,4,5,0,4,4,0,0,4,6,6,0,6,3,4,0,3,3,0,0,0,0,0,0,0,0,0,0,0,0,0,0,0,0,0,0,0,0,0,0,0,0],"split_type":[0,0,0,0,0,0,0,0,0,0,0,0,0,0,0,0,0,0,0,0,0,0,0,0,0,0,0,0,0,0,0,0,0,0,0,0,0,0,0,0,0,0,0,0,0,0,0,0,0,0,0,0,0,0,0],"sum_hessian":[1.4902562E5,4.7744363E4,1.01281266E5,6.641431E4,3.4866953E4,5.336201E4,1.3052298E4,2.1826487E3,3.2684305E4,4.954604E4,3.8159705E3,1.5002598E3,1.1552038E4,2.0634578E3,1.1919104E2,3.2676559E4,7.746124E0,4.36311E4,5.914938E3,1.0703453E3,2.745625E3,2.3698521E2,1.2632747E3,5.572471E3,5.979567E3,3.6287712E1,2.02717E3,1.4877108E1,1.04313934E2,7.2634707E3,2.5413088E4,3.6795746E4,6.8353555E3,4.249416E3,1.665522E3,7.100509E0,1.0632449E3,2.330502E0,2.7432944E3,1.8404305E2,5.2942177E1,3.7602176E2,8.872528E2,2.8450943E1,5.5440205E3,2.5414967E1,1.0872746E1,1.7785938E3,2.4857625E2,9.5831585E0,5.293949E0,1.3528975E2,7.128181E3,2.4512832E4,9.0025574E2],"tree_param":{"num_deleted":"0","num_feature":"9","num_nodes":"55","size_leaf_vector":"1"}},{"base_weights":[-4.523295E-3,-1.04065515E-1,4.586245E-1,2.4748848E-1,8.880423E-1,8.982235E-2,9.693429E-1,6.810672E-1,9.0241414E-1,5.270984E-2,8.262453E-1,6.637565E-1,1.0184642E0,6.5636724E-1,1.0004407E-1,9.02945E-1,6.6880643E-1,3.7029376E-3,3.1133273E-1,5.254975E-1,9.71502E-1,5.3225434E-1,9.597631E-1,9.995188E-1,1.0306575E-1,-1.1548722E-1,6.6417414E-1,9.1777194E-1,8.975568E-1,-7.966824E-3,7.5025153E-1,2.115656E-2,-6.6574933E-3,3.165624E-2,-3.7695974E-1,-3.56971E-2,5.6382418E-2,-1.76619E-1,9.7784996E-2,9.42569E-2,3.67194E-2,9.10215E-2,1.00940004E-1,1.0357932E-1,9.8714374E-2,-3.6930117E-1,7.0450336E-2,-8.251677E-2,6.657559E-2,9.180453E-2,4.8514362E-2,8.977481E-2,4.956519E-2,9.318378E-2,2.7281364E-2],"categories":[],"categories_nodes":[],"categories_segments":[],"categories_sizes":[],"default_left":[0,0,0,0,0,0,0,0,0,0,0,0,0,0,0,0,0,0,0,0,0,0,0,0,0,0,0,0,0,0,0,0,0,0,0,0,0,0,0,0,0,0,0,0,0,0,0,0,0,0,0,0,0,0,0],"id":26,"left_children":[1,-1,3,5,7,9,11,13,15,17,19,21,23,25,-1,27,29,31,33,35,37,39,41,43,-1,45,47,49,51,-1,53,-1,-1,-1,-1,-1,-1,-1,-1,-1,-1,-1,-1,-1,-1,-1,-1,-1,-1,-1,-1,-1,-1,-1,-1],"loss_changes":[6.741146E4,0E0,8.801629E3,7.4070986E3,9.457031E1,1.4598644E3,1.7445312E2,1.5765137E1,3.1054688E0,6.445513E2,1.1144495E2,6.249176E1,1.2910156E0,1.1737732E1,0E0,1.5585938E0,4.4294662E0,6.2457947E2,1.7409271E2,2.850447E1,3.173877E1,7.570569E1,3.026123E-1,7.585449E-1,0E0,6.1945236E1,5.062744E0,4.9023438E-1,1.2421875E0,0E0,5.358776E0,0E0,0E0,0E0,0E0,0E0,0E0,0E0,0E0,0E0,0E0,0E0,0E0,0E0,0E0,0E0,0E0,0E0,0E0,0E0,0E0,0E0,0E0,0E0,0E0],"parents":[2147483647,0,0,2,2,3,3,4,4,5,5,6,6,7,7,8,8,9,9,10,10,11,11,12,12,13,13,15,15,16,16,17,17,18,18,19,19,20,20,21,21,22,22,23,23,25,25,26,26,27,27,28,28,30,30],"right_children":[2,-1,4,6,8,10,12,14,16,18,20,22,24,26,-1,28,30,32,34,36,38,40,42,44,-1,46,48,50,52,-1,54,-1,-1,-1,-1,-1,-1,-1,-1,-1,-1,-1,-1,-1,-1,-1,-1,-1,-1,-1,-1,-1,-1,-1,-1],"split_conditions":[1E0,-1.04065515E-1,3E0,7.503371E1,4E0,2.092047E0,9.7461E1,8.3003334E1,4.5E1,2E0,2.335215E0,2.335215E0,2.335215E0,1.730786E-1,1.0004407E-1,1E1,1E0,1.3E1,3.7E1,5E0,1.174E1,1.729355E0,4E0,1.8788968E0,1.0306575E-1,4E0,3E0,4.1E1,4.2E1,-7.966824E-3,1.000594E0,2.115656E-2,-6.6574933E-3,3.165624E-2,-3.7695974E-1,-3.56971E-2,5.6382418E-2,-1.76619E-1,9.7784996E-2,9.42569E-2,3.67194E-2,9.10215E-2,1.00940004E-1,1.0357932E-1,9.8714374E-2,-3.6930117E-1,7.0450336E-2,-8.251677E-2,6.657559E-2,9.180453E-2,4.8514362E-2,8.977481E-2,4.956519E-2,9.318378E-2,2.7281364E-2],"split_indices":[5,0,5,7,5,6,7,7,5,5,6,6,6,6,0,5,2,3,3,1,7,6,2,6,0,2,3,3,3,0,6,0,0,0,0,0,0,0,0,0,0,0,0,0,0,0,0,0,0,0,0,0,0,0,0],"split_type":[0,0,0,0,0,0,0,0,0,0,0,0,0,0,0,0,0,0,0,0,0,0,0,0,0,0,0,0,0,0,0,0,0,0,0,0,0,0,0,0,0,0,0,0,0,0,0,0,0,0,0,0,0,0,0],"sum_hessian":[1.4047303E5,4.3393637E4,9.707939E4,6.5081645E4,3.1997748E4,5.341579E4,1.1665855E4,2.0807292E3,2.9917018E4,5.085404E4,2.5617507E3,1.6175431E3,1.00483125E4,1.9341959E3,1.465334E2,2.9846336E4,7.068183E1,4.2753598E4,8.1004395E3,8.358262E2,1.7259246E3,1.1219225E3,4.9562057E2,3.9672136E3,6.081099E3,1.9229338E1,1.9149666E3,7.910145E3,2.1936191E4,6.9385805E0,6.374325E1,1.080206E4,3.195154E4,8.0909937E3,9.446045E0,3.444391E1,8.0138226E2,3.3513513E0,1.7225732E3,3.204995E2,8.01423E2,2.577093E2,2.379113E2,9.88111E2,2.9791028E3,2.9323049E0,1.6297033E1,1.4791728E0,1.9134874E3,7.90403E3,6.1154246E0,2.1924521E4,1.1670537E1,4.549005E1,1.8253199E1],"tree_param":{"num_deleted":"0","num_feature":"9","num_nodes":"55","size_leaf_vector":"1"}},{"base_weights":[2.076175E-3,-1.0366323E-1,4.3879464E-1,2.417957E-1,8.7111664E-1,9.5212266E-2,9.605228E-1,6.48638E-1,8.866482E-1,4.6203043E-2,8.3670473E-1,5.828581E-1,1.0139447E0,6.265467E-1,9.8673485E-2,9.101586E-1,8.799319E-1,6.735761E-3,3.66632E-1,5.5563515E-1,9.6430683E-1,9.777829E-1,5.0627416E-1,9.9383986E-1,1.0323755E-1,6.3348734E-1,-9.4498646E-1,9.0603805E-1,9.605599E-1,8.8054353E-1,6.58458E-1,6.5102936E-3,-2.8281426E-2,1.2151996E-2,5.217864E-2,6.1617125E-2,1.5518096E-2,-1.539319E-1,9.686246E-2,1.0303327E-1,8.004469E-2,5.6055527E-2,-4.734681E-2,2.7777344E-2,1.000937E-1,5.787566E-2,7.1230546E-2,-5.2485937E-1,7.5417094E-2,9.072209E-2,2.1392742E-2,3.2428782E-2,9.6657254E-2,8.70376E-2,8.8900484E-2,7.5282134E-2,-1.079787E-2],"categories":[],"categories_nodes":[],"categories_segments":[],"categories_sizes":[],"default_left":[0,0,0,0,0,0,0,0,0,0,0,0,0,0,0,0,0,0,0,0,0,0,0,0,0,0,0,0,0,0,0,0,0,0,0,0,0,0,0,0,0,0,0,0,0,0,0,0,0,0,0,0,0,0,0,0,0],"id":27,"left_children":[1,-1,3,5,7,9,11,13,15,17,19,21,23,25,-1,27,29,31,33,35,37,39,41,43,-1,45,47,49,51,53,55,-1,-1,-1,-1,-1,-1,-1,-1,-1,-1,-1,-1,-1,-1,-1,-1,-1,-1,-1,-1,-1,-1,-1,-1,-1,-1],"loss_changes":[6.040466E4,0E0,7.9838223E3,6.784826E3,1.00828125E2,1.9438943E3,2.1951367E2,1.3712402E1,3.5273438E0,6.345664E2,1.18406494E2,4.0465546E1,2.515625E0,2.0272827E1,0E0,3.8964844E-1,2.3144531E0,7.5505225E2,2.0920178E2,2.5063965E1,2.6132568E1,1.2151642E0,6.070102E1,2.308545E1,0E0,7.337036E0,6.488964E1,4.4101562E0,1.3766174E0,1.0605469E0,4.622984E0,0E0,0E0,0E0,0E0,0E0,0E0,0E0,0E0,0E0,0E0,0E0,0E0,0E0,0E0,0E0,0E0,0E0,0E0,0E0,0E0,0E0,0E0,0E0,0E0,0E0,0E0],"parents":[2147483647,0,0,2,2,3,3,4,4,5,5,6,6,7,7,8,8,9,9,10,10,11,11,12,12,13,13,15,15,16,16,17,17,18,18,19,19,20,20,21,21,22,22,23,23,25,25,26,26,27,27,28,28,29,29,30,30],"right_children":[2,-1,4,6,8,10,12,14,16,18,20,22,24,26,-1,28,30,32,34,36,38,40,42,44,-1,46,48,50,52,54,56,-1,-1,-1,-1,-1,-1,-1,-1,-1,-1,-1,-1,-1,-1,-1,-1,-1,-1,-1,-1,-1,-1,-1,-1,-1,-1],"split_conditions":[5E-1,-1.0366323E-1,7.5E-1,5.1284184E0,8E-1,2.092047E0,5.277298E0,5.18257E0,9E-1,9.802739E1,2.335215E0,7.191E1,1.2183546E2,1.1369937E2,9.8673485E-2,4.8787785E0,9.782609E-1,7.645E1,1.8E1,2.6E1,3.0315819E0,6.265875E1,1.8E1,1.8276069E0,1.0323755E-1,2.3E1,4.95237E0,4.8624444E0,1.1313975E0,5.050625E1,7.493467E1,6.5102936E-3,-2.8281426E-2,1.2151996E-2,5.217864E-2,6.1617125E-2,1.5518096E-2,-1.539319E-1,9.686246E-2,1.0303327E-1,8.004469E-2,5.6055527E-2,-4.734681E-2,2.7777344E-2,1.000937E-1,5.787566E-2,7.1230546E-2,-5.2485937E-1,7.5417094E-2,9.072209E-2,2.1392742E-2,3.2428782E-2,9.6657254E-2,8.70376E-2,8.8900484E-2,7.5282134E-2,-1.079787E-2],"split_indices":[8,0,8,0,8,6,0,0,8,4,6,4,4,4,0,0,8,4,3,3,0,4,1,6,0,3,0,0,6,4,4,0,0,0,0,0,0,0,0,0,0,0,0,0,0,0,0,0,0,0,0,0,0,0,0,0,0],"split_type":[0,0,0,0,0,0,0,0,0,0,0,0,0,0,0,0,0,0,0,0,0,0,0,0,0,0,0,0,0,0,0,0,0,0,0,0,0,0,0,0,0,0,0,0,0,0,0,0,0,0,0,0,0,0,0,0,0],"sum_hessian":[1.3315844E5,3.941378E4,9.3744664E4,6.4400453E4,2.934421E4,5.349197E4,1.0908484E4,1.917671E3,2.742654E4,5.017659E4,3.3153784E3,1.353298E3,9.555187E3,1.802733E3,1.149379E2,6.064164E3,2.1362375E4,4.467499E4,5.5016035E3,1.0368533E3,2.2785251E3,2.1789554E2,1.1354023E3,4.596307E3,4.958879E3,1.7954006E3,7.33248E0,5.623398E3,4.4076605E2,2.1300578E4,6.1796963E1,3.7180883E4,7.4941064E3,2.1332654E3,3.368338E3,9.0022833E2,1.3662491E2,3.3107033E0,2.2752144E3,1.6437607E2,5.3519463E1,1.0762047E3,5.9197624E1,4.5502167E1,4.550805E3,1.0645359E3,7.3086475E2,1.4842497E0,5.8482304E0,5.6134937E3,9.904645E0,4.6404114E0,4.3612564E2,9.721984E3,1.1578593E4,5.503842E1,6.75854E0],"tree_param":{"num_deleted":"0","num_feature":"9","num_nodes":"57","size_leaf_vector":"1"}},{"base_weights":[-6.178557E-3,-1.03302E-1,4.0385595E-1,2.0813276E-1,8.5361195E-1,7.214176E-2,9.761445E-1,6.4666957E-1,8.690479E-1,2.9175304E-2,8.7350506E-1,5.9166175E-1,1.0086083E0,6.252163E-1,9.737561E-2,8.911423E-1,8.62721E-1,-1.6270414E-2,3.4781313E-1,5.458385E-1,9.530457E-1,6.095384E-1,-4.7180185E-1,9.8668414E-1,1.0291051E-1,6.434973E-1,4.037704E-1,6.648106E-1,8.931501E-1,8.629819E-1,5.023698E-1,-8.96726E-3,2.098398E-2,4.1736636E-2,-1.26279015E-2,-5.0317775E-2,5.799506E-2,-1.559792E-1,9.575413E-2,9.258749E-2,4.987688E-2,-4.1166965E-2,1.0011905E-1,1.7064204E-2,6.551489E-2,-8.4343E-1,5.3703696E-2,-4.98623E-3,8.320428E-2,8.886826E-2,9.503623E-2,8.635742E-2,6.906054E-2,8.657116E-2,-2.273759E-2],"categories":[],"categories_nodes":[],"categories_segments":[],"categories_sizes":[],"default_left":[0,0,0,0,0,0,0,0,0,0,0,0,0,0,0,0,0,0,0,0,0,0,0,0,0,0,0,0,0,0,0,0,0,0,0,0,0,0,0,0,0,0,0,0,0,0,0,0,0,0,0,0,0,0,0],"id":28,"left_children":[1,-1,3,5,7,9,11,13,15,17,19,21,23,25,-1,27,29,31,33,35,37,39,-1,41,-1,43,45,47,49,51,53,-1,-1,-1,-1,-1,-1,-1,-1,-1,-1,-1,-1,-1,-1,-1,-1,-1,-1,-1,-1,-1,-1,-1,-1],"loss_changes":[5.2781465E4,0E0,7.8858984E3,6.5195713E3,8.6208984E1,1.82602E3,1.1661133E2,1.2649658E1,2.765625E0,7.289078E2,6.981714E1,7.2504944E1,2.875E0,6.9296875E0,0E0,1.9492188E0,1.4169922E0,7.31181E2,2.0723566E2,1.9239334E1,2.6010254E1,2.5187347E1,0E0,8.576074E1,0E0,8.91748E0,1.672027E2,6.3902073E0,5.722656E-1,1.4111328E0,4.606799E0,0E0,0E0,0E0,0E0,0E0,0E0,0E0,0E0,0E0,0E0,0E0,0E0,0E0,0E0,0E0,0E0,0E0,0E0,0E0,0E0,0E0,0E0,0E0,0E0],"parents":[2147483647,0,0,2,2,3,3,4,4,5,5,6,6,7,7,8,8,9,9,10,10,11,11,12,12,13,13,15,15,16,16,17,17,18,18,19,19,20,20,21,21,23,23,25,25,26,26,27,27,28,28,29,29,30,30],"right_children":[2,-1,4,6,8,10,12,14,16,18,20,22,24,26,-1,28,30,32,34,36,38,40,-1,42,-1,44,46,48,50,52,54,-1,-1,-1,-1,-1,-1,-1,-1,-1,-1,-1,-1,-1,-1,-1,-1,-1,-1,-1,-1,-1,-1,-1,-1],"split_conditions":[1E0,-1.03302E-1,3E0,5.18257E0,4E0,2.1803997E0,5.277298E0,7.503371E1,9E0,9.613538E1,2.335215E0,2.1E1,1.2183546E2,1.5546587E0,9.737561E-2,4E0,4.2E1,1.4435688E0,1.7E1,5E0,1.174E1,1.4823834E0,-4.7180185E-1,9.7461E1,1.0291051E-1,3E0,1.2E1,9E0,4.8787785E0,4.5E1,7E0,-8.96726E-3,2.098398E-2,4.1736636E-2,-1.26279015E-2,-5.0317775E-2,5.799506E-2,-1.559792E-1,9.575413E-2,9.258749E-2,4.987688E-2,-4.1166965E-2,1.0011905E-1,1.7064204E-2,6.551489E-2,-8.4343E-1,5.3703696E-2,-4.98623E-3,8.320428E-2,8.886826E-2,9.503623E-2,8.635742E-2,6.906054E-2,8.657116E-2,-2.273759E-2],"split_indices":[5,0,5,0,5,6,0,7,5,4,6,1,4,6,0,3,3,6,1,1,7,6,0,7,0,1,3,1,0,5,1,0,0,0,0,0,0,0,0,0,0,0,0,0,0,0,0,0,0,0,0,0,0,0,0],"split_type":[0,0,0,0,0,0,0,0,0,0,0,0,0,0,0,0,0,0,0,0,0,0,0,0,0,0,0,0,0,0,0,0,0,0,0,0,0,0,0,0,0,0,0,0,0,0,0,0,0,0,0,0,0,0,0],"sum_hessian":[1.2535761E5,3.5772273E4,8.9585336E4,6.242215E4,2.7163186E4,5.3032785E4,9.389363E3,1.8884587E3,2.5274727E4,5.0335023E4,2.6977612E3,7.3256274E2,8.656801E3,1.774953E3,1.1350576E2,5.5952983E3,1.9679428E4,4.4052926E4,6.2820996E3,5.2849506E2,2.169266E3,7.309869E2,1.5758823E0,4.206478E3,4.450323E3,1.6378391E3,1.3711388E2,5.212012E1,5.543178E3,1.9663795E4,1.563212E1,3.325723E4,1.0795695E4,5.4784805E3,8.0361884E2,1.6211384E1,5.122837E2,3.256121E0,2.16601E3,1.8767233E2,5.433145E2,4.290808E1,4.16357E3,3.976391E1,1.5980752E3,1.1115024E0,1.3600238E2,1.0016418E1,4.2103703E1,5.1570166E3,3.8616202E2,1.9592463E4,7.133221E1,1.0311624E1,5.3204966E0],"tree_param":{"num_deleted":"0","num_feature":"9","num_nodes":"55","size_leaf_vector":"1"}},{"base_weights":[3.9516052E-4,-1.0297737E-1,3.8603562E-1,2.0077123E-1,8.3652395E-1,7.536108E-2,9.670066E-1,6.0094523E-1,8.537838E-1,3.7365068E-2,8.611928E-1,5.652074E-1,1.0022205E0,5.7645637E-1,9.662935E-2,8.5394436E-1,2.0031411E-2,-2.2117919E-4,3.0805674E-1,5.475735E-1,9.418105E-1,9.0593433E-1,4.4439214E-1,9.773956E-1,1.02555744E-1,1.68751E-1,5.9696805E-1,8.721464E-1,8.487836E-1,1.799844E-2,-7.2337138E-3,2.2310996E-2,6.5557554E-2,6.293457E-2,2.202129E-3,-1.2160814E-1,9.4507776E-2,-3.917396E-2,9.623324E-2,-7.3794127E-1,4.8123144E-2,5.866264E-2,9.9478446E-2,4.205875E-2,-5.435657E-1,5.8875658E-2,9.800278E-2,7.649514E-2,8.7600216E-2,9.073933E-2,8.467823E-2],"categories":[],"categories_nodes":[],"categories_segments":[],"categories_sizes":[],"default_left":[0,0,0,0,0,0,0,0,0,0,0,0,0,0,0,0,0,0,0,0,0,0,0,0,0,0,0,0,0,0,0,0,0,0,0,0,0,0,0,0,0,0,0,0,0,0,0,0,0,0,0],"id":29,"left_children":[1,-1,3,5,7,9,11,13,15,17,19,21,23,25,-1,27,-1,29,31,33,35,37,39,41,-1,43,45,47,49,-1,-1,-1,-1,-1,-1,-1,-1,-1,-1,-1,-1,-1,-1,-1,-1,-1,-1,-1,-1,-1,-1],"loss_changes":[4.7377492E4,0E0,7.2418604E3,5.9085215E3,1.02302734E2,1.577709E3,1.21796875E2,1.4916931E1,2.3007812E0,5.1283093E2,6.1100586E1,2.8378082E1,3.6035156E0,1.3474915E1,0E0,1.4726562E0,0E0,5.752043E2,1.8127246E2,2.1505676E1,1.4807861E1,1.3700592E1,1.5288052E2,2.573706E1,0E0,1.14002396E2,4.2834473E0,1.465332E0,1.3876953E0,0E0,0E0,0E0,0E0,0E0,0E0,0E0,0E0,0E0,0E0,0E0,0E0,0E0,0E0,0E0,0E0,0E0,0E0,0E0,0E0,0E0,0E0],"parents":[2147483647,0,0,2,2,3,3,4,4,5,5,6,6,7,7,8,8,9,9,10,10,11,11,12,12,13,13,15,15,17,17,18,18,19,19,20,20,21,21,22,22,23,23,25,25,26,26,27,27,28,28],"right_children":[2,-1,4,6,8,10,12,14,16,18,20,22,24,26,-1,28,-1,30,32,34,36,38,40,42,-1,44,46,48,50,-1,-1,-1,-1,-1,-1,-1,-1,-1,-1,-1,-1,-1,-1,-1,-1,-1,-1,-1,-1,-1,-1],"split_conditions":[1E0,-1.0297737E-1,3E0,5.18257E0,4E0,2.1803997E0,5.277298E0,5.18257E0,5.3E1,9.613538E1,2.335215E0,1.4823834E0,1.2183546E2,8E0,9.662935E-2,9E0,2.0031411E-2,1.4E1,1.362475E2,2.6E1,3.0315819E0,7E0,1.5645494E0,1.9422805E0,1.02555744E-1,4.339641E0,2.335215E0,6E0,1.6272779E0,1.799844E-2,-7.2337138E-3,2.2310996E-2,6.5557554E-2,6.293457E-2,2.202129E-3,-1.2160814E-1,9.4507776E-2,-3.917396E-2,9.623324E-2,-7.3794127E-1,4.8123144E-2,5.866264E-2,9.9478446E-2,4.205875E-2,-5.435657E-1,5.8875658E-2,9.800278E-2,7.649514E-2,8.7600216E-2,9.073933E-2,8.467823E-2],"split_indices":[5,0,5,0,5,6,0,0,5,4,6,6,4,3,0,5,0,3,4,3,0,3,6,6,0,0,6,3,0,0,0,0,0,0,0,0,0,0,0,0,0,0,0,0,0,0,0,0,0,0,0],"split_type":[0,0,0,0,0,0,0,0,0,0,0,0,0,0,0,0,0,0,0,0,0,0,0,0,0,0,0,0,0,0,0,0,0,0,0,0,0,0,0,0,0,0,0,0,0,0,0,0,0,0,0],"sum_hessian":[1.1925422E5,3.2482201E4,8.6772016E4,6.1486848E4,2.5285166E4,5.2839652E4,8.647195E3,1.7285222E3,2.3556645E4,5.0403617E4,2.4360344E3,6.9815344E2,7.9490415E3,1.6223556E3,1.0616668E2,2.3550553E4,6.091871E0,4.425912E4,6.1444956E3,4.9973898E2,1.9362954E3,1.8105063E2,5.171028E2,3.8724937E3,4.076548E3,7.815309E1,1.5442024E3,5.165088E3,1.8385465E4,1.2649261E4,3.1609861E4,4.938886E3,1.2056093E3,4.322816E2,6.7457405E1,2.3660994E0,1.9339293E3,7.293238E0,1.7375739E2,1.4893337E0,5.1561346E2,1.6646121E2,3.7060325E3,7.5677444E1,2.4756453E0,1.5142784E3,2.9924068E1,1.8625755E2,4.97883E3,5.921304E2,1.7793334E4],"tree_param":{"num_deleted":"0","num_feature":"9","num_nodes":"51","size_leaf_vector":"1"}},{"base_weights":[-2.5379092E-3,-1.02685414E-1,3.5824603E-1,1.8257283E-1,8.161355E-1,6.661089E-2,9.5966387E-1,5.9124357E-1,8.335554E-1,3.1064235E-2,8.407335E-1,5.5607545E-1,9.973818E-1,5.692149E-1,9.458128E-2,8.341762E-1,5.345482E-1,-1.010895E0,4.087082E-2,4.6684685E-1,9.326914E-1,5.761226E-1,-3.8019845E-1,9.703468E-1,1.0222349E-1,5.460066E-1,7.500375E-1,8.590649E-1,8.270442E-1,7.9087263E-1,-2.7928323E-1,4.586505E-2,-1.3587676E-1,-7.456181E-5,2.6729016E-2,-2.5841698E-1,4.902905E-2,-1.4095762E-1,9.373486E-2,9.027421E-2,4.5127634E-2,-3.6407672E-2,9.875098E-2,-1.5155493E-1,5.516568E-2,8.03985E-2,-7.190333E-2,8.5554294E-2,9.67496E-2,8.192012E-2,8.44931E-2,4.6834614E-2,9.5275E-2,-1.3766724E-1,8.875655E-2],"categories":[],"categories_nodes":[],"categories_segments":[],"categories_sizes":[],"default_left":[0,0,0,0,0,0,0,0,0,0,0,0,0,0,0,0,0,0,0,0,0,0,0,0,0,0,0,0,0,0,0,0,0,0,0,0,0,0,0,0,0,0,0,0,0,0,0,0,0,0,0,0,0,0,0],"id":30,"left_children":[1,-1,3,5,7,9,11,13,15,17,19,21,23,25,-1,27,29,31,33,35,37,39,-1,41,-1,43,45,47,